826 128
90 0.034174822 -0.072290115 -0.08846286 0.04203451 0.1706234 -0.047505695 -0.06436644 -0.21755952 0.21206674 0.18401375 -0.13924143 -0.06623158 0.11340436 0.15269874 -0.059251048 -0.10984256 0.18127498 -0.0051474012 0.097870596 0.0454773 0.17089936 -0.026922695 -0.04497167 0.14072908 0.10620005 0.059847187 -0.18037495 0.03852746 -0.14501522 0.1734532 -0.31111535 -0.085948035 -0.02661659 0.057922047 -0.07469518 0.13418669 0.089242354 -0.12857631 -0.12340442 -0.13466956 -0.12617902 -0.015353436 0.22781953 0.047597922 -0.015964964 0.2972617 -0.04699294 0.07399529 0.07286043 0.07026788 -0.15663573 -0.17776756 -0.05585661 0.011936279 -0.24531952 0.04957876 -0.08420041 0.038200516 0.0079315575 -0.2061435 -0.05521658 -0.0027664225 -0.24852261 0.13070199 0.012225176 -0.104219384 -0.20516056 -0.17479065 -0.072490714 0.069204286 0.15331736 0.23863664 0.2148871 -0.011448271 0.13091479 -0.25782818 0.12595414 -0.14388268 -0.14080909 0.07988923 -0.38543138 -0.040734503 -0.01555586 -0.23841481 -0.02533305 0.006877834 0.18729614 -0.14528984 0.32586387 0.06778641 0.09906711 0.10780341 0.14827654 -0.32585302 0.21365112 0.20714752 -0.050296776 0.19779259 0.10139351 -0.030607995 -0.2720091 0.10406176 -0.037551783 -0.12263102 0.4279333 -0.12037587 -0.15731269 -0.18035075 -0.04766693 -0.31311303 -0.050153743 -0.2568677 -0.1601096 0.13286668 -0.09956864 -0.15912366 0.0652913 0.2516872 -0.11585568 -0.35390705 0.1332639 0.001480697 0.052202735 -0.19006771 0.04901617 -0.13933702 -0.24854347 -0.31012338
159 -0.06913313 0.17169407 0.05918308 -0.018273126 -0.039493363 0.037923723 0.100853 0.009718013 -0.086361736 -0.055252396 0.052395444 -0.18534108 0.017566955 -0.32164806 -0.10799909 -0.020475313 0.23182526 0.07426978 0.19406982 -0.25385156 0.01887113 -0.0680513 0.011117523 0.07644403 0.11567756 0.03948219 -0.08231544 -0.17878902 -0.21768686 0.021929678 -0.07156043 0.00011783121 -0.16826469 -0.066193014 -0.34677386 -0.053697046 0.019451236 0.11906092 -0.103157416 -0.1585412 -0.0635799 -0.06861541 0.014266892 -0.15683927 -0.038214404 0.08881327 0.01381709 0.055501577 0.04746289 0.014314964 -0.08978126 -0.11252451 0.09017566 0.042859092 -0.15049873 -0.12901764 -0.14987227 -0.17623787 0.03452541 -0.08500062 0.0871048 0.027418287 0.087243155 0.007416601 -0.11564944 0.0072297896 -0.11594699 -0.2579839 0.08394371 -0.020537227 0.022947626 0.120955504 0.13079698 -0.082936555 -0.13082382 -0.08160521 -0.10464036 -0.038340464 -0.11856701 -0.08240833 -0.2186501 -0.025946394 0.028292354 -0.026672332 -0.023351938 0.080464326 0.19810523 -0.2628272 0.33873725 0.0137256365 0.032497708 0.25504062 0.038360223 -0.16832715 0.070137344 0.27069676 0.117918395 -0.03317761 0.021312958 -0.17995699 -0.23807754 -0.021279348 0.041005787 -0.017590618 0.4818374 0.0061463555 0.053093232 -0.30387917 0.15900366 -0.34642375 -0.21413687 -0.2015122 -0.12636292 0.16574521 -0.0950903 -0.17835933 -0.013068551 0.4723375 -0.14749758 -0.20997433 0.060674302 -0.09727273 0.06300064 -0.04960863 0.05023358 -0.11358704 -0.21626204 -0.29931518
772 -0.14571169 -0.014901816 0.086710334 0.15721957 -0.08999314 0.04582445 0.28047496 -0.010510003 -0.022017458 -0.09310787 0.31989998 -0.3502251 -0.048559755 -0.33073777 0.012738596 -0.046275534 0.36523867 -0.046228286 -0.0005180177 -0.13359159 -0.18646388 -0.17228128 0.16414072 0.014372306 0.1425756 -0.20090662 0.015331208 0.084756084 -0.028983943 -0.26125696 -0.11140667 -0.035031687 -0.20779014 0.10292393 -0.40729356 0.056286182 0.22294134 0.119396694 -0.2115982 0.06009911 -0.19494638 -0.12240647 0.04246469 0.17461006 0.05405303 0.17350395 0.05933019 0.2867061 0.11729004 -0.047702204 -0.17577244 -0.1388376 -0.094784364 -0.07305601 -0.15553656 -0.14744729 0.06045623 -0.18929774 0.013012466 -0.17789516 0.027168544 -0.037049472 -0.041793082 0.06684463 -0.111428484 0.013338927 0.16923161 -0.090131775 0.00026666216 0.10081133 0.0208686 0.068088375 0.13531019 -0.036608413 -0.017488029 0.035509825 0.14620836 0.027208947 -0.24681397 0.05504963 -0.3693172 -0.04169821 -0.043218054 -0.06764281 0.17029628 0.09498864 0.007046468 0.083450295 0.20647389 0.11005123 -0.0044379337 -0.0057723257 0.06353632 -0.005451867 0.3318687 0.06744162 0.030585136 0.098334126 0.045680445 -0.38362762 0.06871648 -0.09220478 -0.11451979 0.0488743 0.20486301 -0.05445695 -0.034180596 -0.2049949 0.2447502 -0.21188869 0.18591537 0.036142144 -0.1977091 0.21012345 -0.042305503 -0.040533517 -0.12237224 0.27024624 -0.11338648 -0.01722285 -0.18688832 -0.14303821 0.020893808 -0.033965226 -0.07239691 -0.22197624 -0.28723586 -0.09936199
607 0.04726541 -0.03904838 0.1137517 0.07210218 0.1358613 0.08080288 0.048580427 -0.02575247 0.13428082 -0.09973644 0.2110359 -0.14110854 -0.004996956 -0.22020006 -0.12089779 0.15209489 0.07190926 -0.057615932 0.11693948 -0.05301822 -0.07417757 -0.17415383 -0.066951305 0.22383969 0.12549365 -0.12033919 0.07323028 -0.1410425 -0.243876 0.04991878 -0.037849534 -0.061151776 -0.24101114 0.10449521 -0.054175194 0.1081335 0.06509564 -0.056147765 -0.21412605 -0.077709205 -0.010205005 -0.06414307 0.13893788 -0.16855189 0.04627971 0.03221015 0.010687958 0.062430896 0.011580515 -0.04129126 -0.15340786 -0.13542858 -0.12979919 0.06717167 -0.09450191 -0.08218144 -0.053472888 0.006498643 0.13725214 -0.21843062 0.21142842 0.006657995 -0.1956921 0.056859545 0.061040755 0.07067469 0.34651583 -0.24962819 0.13873641 0.22515108 -0.07472283 0.14280379 0.010004213 -0.019004239 -0.118728 -0.12901187 0.13591819 0.05757808 -0.11656468 0.134469 -0.27366632 0.01211377 -0.04942936 -0.15686625 -0.07911529 0.040307354 0.032270953 0.15087844 0.056608196 0.27678746 -0.010484498 -0.03430473 0.07488363 -0.122942545 -0.11319503 0.0794779 0.27977243 -0.20121007 -0.041580062 -0.21555778 -0.023837002 0.018587187 0.13205388 0.022348814 0.23930864 -0.22264415 0.1017879 -0.27993366 0.24491233 -0.16407938 0.05742122 -0.07728405 -0.00039408452 0.0702763 0.09905797 -0.34587452 -0.15373613 0.14983238 0.14057323 -0.42815596 0.16378848 -0.06639693 0.1662381 0.037469875 -0.23896231 -0.23185866 -0.13296442 -0.28654143
120 -0.08765374 -0.06590428 -0.03286437 0.09766363 -0.13514674 -0.0011746591 0.17268187 0.061586116 0.07644761 -0.28095615 0.12495773 -0.13277052 -0.042186826 -0.31505805 -0.0021326153 -0.18468586 0.29136655 -0.0963092 0.22244681 -0.17257877 0.015528077 0.056702226 0.10036113 0.15529415 0.11886446 -0.21230076 -0.0055694813 -0.07519181 -0.16723327 -0.046637613 -0.055955715 -0.10892971 -0.17307483 0.024851935 -0.1997108 0.11232034 0.18924156 0.058786817 -0.21098126 -0.12959592 -0.09578556 0.07872294 -0.08510591 0.033103995 0.1616726 0.11833881 0.14967884 0.27037367 0.1289062 -0.040592056 -0.28439265 -0.06513487 -0.20566463 -0.08454004 -0.16270071 -0.099443756 0.11953782 -0.02572444 -0.19462083 -0.23019429 0.019493483 -0.0639616 -0.020685924 -0.061596464 -0.055669617 -0.001821596 -0.014806632 -0.18125993 0.005537389 0.11290294 0.09211517 0.20326062 0.14072078 -0.13063136 -0.09540633 0.0016384019 0.04755097 -0.06426118 -0.22128601 0.10979865 -0.3832044 0.048964 0.015592486 0.029220106 0.1752117 0.13654241 0.030874569 -0.068891264 0.1532417 0.00670069 -0.026811836 0.0118288705 0.031231822 -0.13305381 0.1464588 0.0505952 0.03926068 0.090422556 0.043500308 -0.2833012 -0.07315134 -0.01805429 -0.06562446 0.08876305 0.17351712 -0.05939276 -0.1506343 -0.2070963 0.13183276 -0.14777792 -0.021485243 -0.0470814 -0.19922762 -0.015900299 0.010104962 -0.18251124 -0.32012454 0.28858316 -0.030012526 -0.10185044 -0.17511106 -0.2360734 0.21808551 0.079137 0.04945369 -0.11282313 -0.26040867 -0.3257695
61 0.0074100397 -0.11640004 0.15022077 -0.08557588 -0.16557336 0.011059373 0.16914849 -0.09486822 0.2143005 -0.3076523 0.054841105 -0.07827305 -0.2839272 -0.21031758 0.0156583 -0.0833081 0.3294805 -0.20382182 -0.087089844 0.0023597318 0.22092879 0.07897929 -0.08015529 0.02063287 0.15392144 -0.10870384 -0.10091825 -0.024590708 -0.22636835 -0.06897676 -0.20407714 -0.12474756 -0.2781513 0.08301332 -0.032940183 0.23081249 0.20945781 0.04549454 -0.0070361076 -0.18290289 -0.123744234 -0.033815254 0.044989184 0.0058367 -0.022987954 -0.07419927 0.05514185 0.13795254 0.14793332 0.058408573 0.05074182 -0.14140275 -0.07198709 0.05308649 -0.0064671435 0.07785395 0.06638588 -0.059730526 -0.1264453 -0.3099729 -0.01286286 -0.08116813 -0.18911123 0.09198952 0.1059406 -0.06203001 -0.08695867 -0.307639 0.1974062 0.13862221 0.009750977 0.29832748 0.21104485 -0.12668651 0.17764895 0.07442783 0.13329 -0.016263863 -0.09958189 -0.09914389 -0.2562414 0.16401446 -0.03469587 -0.20201723 0.098796174 0.11645098 0.063035175 -0.08305651 -0.068122976 0.18913212 -0.0009689618 0.080960974 0.21451949 -0.14731903 0.17099743 0.18200745 0.3147926 -0.18001316 -0.06348645 -0.18649894 -0.02345697 0.07500224 -0.03110741 0.14710787 0.18976024 -0.1712756 -0.055376127 -0.10320429 0.12683813 -0.054892838 -0.116211206 -0.018786073 0.040080875 0.21072938 0.052625302 0.04804325 0.07341476 0.39903736 -0.09976304 -0.5147988 -0.0781627 -0.12061723 0.13546701 -0.06090079 -0.0039667226 0.025033103 -0.1745717 0.15615752
214 0.074566774 -0.09050644 0.19268538 -0.04829915 -0.18666294 0.017011045 0.025191512 0.011136627 0.03705885 -0.2514222 0.08886335 -0.22737882 0.042096015 -0.06551135 -0.02647164 -0.23204821 0.06188296 0.10715244 0.21309698 -0.12544703 0.2556542 0.0075344727 0.011953661 0.16520144 0.025415936 -0.16595152 0.004568323 -0.033719014 -0.19383687 0.118732184 -0.07252849 -0.042129382 -0.11312378 0.006801953 -0.39051402 0.06371519 0.18420872 0.041787807 -0.1783717 -0.26975146 -0.11416028 -0.022494245 -0.17393439 -0.22064948 0.16063237 0.18254457 0.22008301 0.12761329 0.089619316 0.009882483 -0.17766191 -0.12743635 -0.04839884 0.011952982 -0.10401998 -0.1593888 -0.1498516 -0.17118067 -0.1873724 -0.057795167 0.11581934 0.020884078 -0.18023299 0.051079817 0.013243963 0.11843325 -0.013037076 -0.07973046 -0.0017153702 -0.033520162 -0.09956529 0.20374432 0.11914212 -0.21744588 0.15773124 -0.19033694 0.112199 -0.31180674 -0.027975943 -0.013102753 -0.25008735 -0.15007763 -0.23958535 0.026843105 0.13642374 0.09998009 0.07454511 -0.1705667 0.091175646 0.1985354 -0.044065535 -0.089289814 0.09202642 -0.025436206 0.33965847 0.113609165 0.14253134 0.020066505 0.028830644 -0.13740298 -0.19458973 -0.0674333 0.040252436 0.0006277677 0.42429784 -0.0039652265 -0.12492374 -0.33453503 0.29531926 -0.2679729 -0.18822412 -0.07063212 -0.17050676 0.058436442 0.13831711 -0.25827685 0.006853188 0.29805124 -0.14698535 -0.17212795 -0.057816062 -0.045587055 0.22403944 -0.018422546 0.10634771 -0.14385563 -0.08266156 -0.3107442
692 -0.2918266 0.10463793 0.21725333 -0.006446516 -0.024628943 0.06643563 0.21200661 0.040671326 0.1315055 -0.19416822 0.18577357 -0.2061609 -0.064448245 -0.21343207 0.12522604 -0.064563 0.24795167 -0.1746627 0.118388504 -0.103727825 -0.08315267 -0.05042119 0.24408557 0.21181856 0.18820897 0.037624612 -0.041484177 -0.14549482 -0.16060758 0.060702246 -0.07113062 -0.1117069 -0.28300163 -0.057135783 -0.065559864 0.08439889 -0.0074050035 -0.038774606 -0.2606987 0.20116962 -0.062746376 -0.15810212 0.22521508 0.09466211 -0.013433681 0.014328981 -0.17602447 -0.02208008 0.21937664 0.18990071 -0.37801334 -0.10497203 0.053700153 0.022989593 -0.22524549 -0.22959352 0.044401847 -0.16920477 0.09307524 -0.3251033 0.14224492 -0.13922371 -0.22077881 -0.17723851 -0.1736608 0.1411351 0.11944998 -0.4856164 -0.17813128 0.23172294 -0.028296674 -0.057995796 0.021813137 -0.08122036 -0.13574757 0.016199514 0.11008695 -0.24924812 -0.0077337874 0.052438606 -0.05995189 -0.22764851 -0.13041438 -0.35455403 0.09306509 -0.12177566 0.045187794 -0.023274658 0.09552827 0.07155053 -0.06941812 0.10045379 0.02420627 -0.07603401 0.1111631 0.38345695 0.004428016 -0.23640575 -0.13080296 -0.07909191 0.033033114 0.024060829 0.08150794 0.12575851 0.09281351 0.13023286 0.120288566 0.13585876 0.22289391 -0.007395536 0.01534339 -0.2736011 -0.05780585 0.0068876017 0.052606374 -0.44404694 -0.0066819037 0.19663198 -0.22062819 -0.3463333 0.010214124 0.05863087 0.057675414 -0.039073773 -0.26259327 -0.10526598 -0.08773334 -0.31500182
135 0.027396739 0.25679255 0.13015519 0.07965103 -0.15198182 -0.10645312 0.29081756 0.12102167 -0.01288036 -0.045546304 0.18892214 0.06152816 -0.06618323 -0.34711996 0.03679254 -0.04858011 -0.04842295 -0.22298719 -0.06567732 -0.24806747 -0.03282698 -0.12325009 0.094373226 0.20798385 0.28449473 -0.25756818 -0.007177148 -0.13492058 -0.2521801 0.03126502 -0.0717818 0.08110669 -0.1663837 -0.020057764 0.0077398503 -0.022704666 0.07736765 -0.019037636 -0.1928117 0.15075919 0.005513762 -0.03271023 0.116594434 -0.06269949 0.17038526 0.014170149 0.18818842 -0.08867238 0.13560577 0.25231773 -0.2780948 -0.086430185 0.030207576 -0.030625073 -0.07459796 -0.23142917 0.027392615 -0.057373613 0.21791615 0.02431377 0.18087274 -0.032759745 -0.23336878 0.12499795 -0.09675328 -0.013765789 0.1545042 -0.37894243 -0.03461932 0.21095835 -0.1034405 0.17323427 0.061106537 -0.16263083 0.095342316 0.03619631 -0.19517489 -0.24622227 -0.105396375 0.16134556 -0.21243791 0.11102223 -0.0035779204 -0.27447274 -0.0077982694 -0.1376066 0.06736893 0.028617185 0.24998689 0.17965004 0.018423647 0.09139874 -0.006618728 -0.034068096 0.3247488 0.08826532 0.26118714 -0.24005246 -0.061866496 -0.32603803 0.052458256 0.13349484 -0.18857895 0.03633628 0.42006814 0.21289885 0.20392498 -0.06442668 0.23095705 0.020025486 0.041847333 -0.2328256 0.052812204 -0.14385335 0.1660714 -0.35740435 -0.14303312 0.15977056 -0.23442486 -0.3451097 -0.0009474753 -0.12023537 0.14255843 -0.07653228 -0.024114294 -0.059615932 0.08269841 -0.048794933
718 0.13597624 0.036648918 -0.078114524 0.029143065 -0.177178 -0.28586474 0.046291847 -0.018419735 0.23872209 -0.31292918 0.076944806 0.03501433 0.15026733 -0.36986116 -0.23094925 -0.17204829 -0.16594687 -0.15047547 -0.039245278 -0.10998754 -0.14149897 -0.11934775 0.19460593 0.1243483 0.10263235 -0.12012517 -0.24316537 -0.10589052 -0.10512654 -0.089076936 -0.35575253 -0.180463 0.04062861 0.071734525 -0.2884079 0.21745056 0.23951688 0.059771292 -0.23475169 -0.32655025 0.005870896 -0.1611817 0.15397432 0.11256273 -0.2761789 0.09595699 0.24906284 0.08916588 0.259772 -0.09144335 0.018955028 -0.07797523 -0.22841413 -0.15156999 -0.1965336 -0.017001014 0.23415576 0.14122643 -0.059881203 -0.31876117 0.09165663 0.004312527 -0.40952045 0.049723078 0.07358232 -0.025526324 0.05043887 -0.12687592 -0.019487094 0.13516825 0.024961391 0.21632548 -0.010712354 -0.12566239 0.13482705 0.08902687 0.16147344 0.026244426 -0.21435794 0.020570379 -0.047440507 -0.07260831 -0.10625526 0.11366626 -0.0491499 -0.16260402 0.14035578 -0.25117084 0.16923931 0.36323208 -0.12087611 -0.007602712 0.061915804 -0.086732455 0.2344013 0.19924101 0.24233639 -0.21131107 0.11004956 -0.23485355 0.20415197 0.017036857 0.2065515 0.026597163 0.2656936 -0.016758481 0.0524342 -0.11976105 0.00814148 -0.008170616 -0.040871624 -0.053956218 0.09877507 -0.041740842 -0.13641565 0.022130694 -0.27548438 0.27768487 0.002492917 -0.24472317 -0.0008898406 -0.31650305 -0.17281173 -0.024103422 -0.08655878 0.027399832 -0.30633533 -0.095208794
586 -0.26817575 -0.26258028 0.07812084 -0.22609463 -0.28989363 -0.039724477 -0.045478627 0.064307 -0.066432826 0.08573455 0.07494849 0.033400387 -0.26944906 -0.098325424 -0.046501536 -0.22068508 0.44528195 -0.01626811 0.02421218 -0.08133662 -0.17745118 0.16011994 0.17266436 0.15782955 -0.072067454 -0.156149 0.03725492 -0.059694488 -0.047641866 0.108088255 0.0013963842 -0.13595335 0.03755427 0.12768672 0.08069484 -0.00975273 0.10896773 0.26867527 -0.3736043 -0.08599857 -0.024078779 -0.037550308 0.07215075 0.3451723 0.21869946 -0.021553418 0.12378863 0.4166989 -0.062215794 -0.132477 -0.06485395 -0.18824776 0.017095469 0.010254003 -0.19370161 0.12305172 0.02018958 -0.12227181 -0.17861232 -0.17400165 -0.06943048 -0.26399204 -0.30626568 -0.08940533 -0.14285944 -0.025280977 0.055022072 -0.19118808 -0.020444915 0.34722692 -0.11216786 -0.13788544 0.25244284 -0.19296423 0.1618184 -0.106650926 0.32114187 0.14036235 0.050701167 -0.19017443 -0.3007779 -0.23502044 -0.07948819 -0.01586328 0.022506883 -0.09442572 -0.0021971825 -0.16345856 0.08971996 0.06596675 0.05919852 -0.16741174 0.11341776 -0.18845238 0.05313667 0.26031905 0.31012115 -0.17649193 -0.118030675 -0.13318907 0.06612168 -0.046580378 -0.01117704 -0.036498435 0.28015035 0.09382792 -0.04362732 0.02292334 0.3831999 -0.37928313 -0.20281506 -0.2625296 -0.12243136 -0.0065965066 0.03443266 -0.36101016 -0.04833753 0.2355886 -0.13941632 -0.27552828 -0.050014097 -0.09820042 0.05233742 -0.10964298 -0.34561762 -0.2690774 -0.13678522 0.10758289
334 0.024947016 0.039599095 0.06534302 -0.023024915 -0.11503804 0.08355085 -0.030045873 0.10469448 -0.07107127 -0.018841747 0.20950715 -0.16752629 -0.15391098 -0.3165921 -0.16478573 -0.06014362 0.05969112 -0.004467957 0.11230517 -0.13854714 0.067503676 -0.015494217 0.14023611 0.24280067 -0.062715754 -0.09239992 -0.09328678 -0.19955532 -0.18211806 0.010203183 -0.06511986 -0.07403823 -0.14673081 0.012664194 -0.15608978 0.109716244 0.26734534 0.050198954 -0.30065355 -0.12238561 0.07932266 -0.0026158218 0.0009980947 0.0037398485 0.122377366 0.09799769 0.23993632 0.16066243 0.014791977 -0.2728043 -0.30427796 -0.2213954 -0.12314717 0.07424864 -0.10224496 -0.036423646 0.02190151 -0.11072185 0.032353044 -0.13421966 -0.057896733 -0.15122798 -0.07492679 -0.033643503 0.028013973 0.1783432 0.004539082 -0.32948995 0.06640238 0.19675827 0.023135338 0.003114352 -0.0975266 -0.18471599 -0.0754732 0.015165348 -0.06466436 0.042854942 -0.1633371 -0.14930454 -0.18538475 0.09312572 -0.06940469 0.12999322 -0.013443801 -0.06079734 0.20667309 0.027573125 0.026803838 0.11149761 -0.056535047 0.09894103 0.24889334 -0.18197103 0.07202194 0.13807765 0.11405028 -0.2724183 -0.02125375 -0.36977726 0.02051385 0.070467085 -0.07249084 0.007851307 0.3124016 -0.011177942 0.10914397 -0.039528765 0.2352961 -0.13965906 -0.073716804 -0.25858268 -0.04787084 -0.017982101 -0.012081311 -0.2937958 -0.124504685 0.09839734 -0.06263374 -0.13266994 -0.12145548 0.0749119 0.1604509 0.027394539 -0.15264884 -0.053622805 -0.06637135 -0.29568553
502 0.2440642 0.10682382 0.17261563 0.020238603 0.04424802 -0.029765457 0.11741366 0.102275126 0.19372097 0.13774298 0.13360043 -0.15524957 0.06676717 -0.2015729 -0.07515993 -0.1760064 0.1060458 -0.21709783 -0.040215082 0.07665686 0.0005104876 0.03589313 -0.14830583 0.18043944 -0.021020599 -0.2505018 0.07537362 -0.03317768 -0.14062668 -0.040361423 -0.06308665 0.032038976 -0.19943807 -0.059978317 -0.20870768 0.05429268 0.2041119 0.08286254 -0.120787695 0.0127871055 0.20832746 -0.030729419 0.07195179 0.11975166 -0.011275093 0.15213344 0.26839924 0.036957778 -0.007522915 0.010211091 -0.21728376 -0.0514802 0.17739956 -0.0020200366 -0.15229335 0.005010425 0.28301343 0.02267741 0.050033167 -0.3453175 0.033033915 -0.027815193 -0.33143526 0.06455967 0.0054793484 0.16825505 0.18025075 -0.066213585 0.07866587 0.14023505 -0.0172289 0.04735584 -0.044185914 -0.22568077 -0.0021055809 -0.12554684 0.024344223 -0.048253257 -0.1670874 -0.021126281 -0.21257919 -0.03071729 -0.075887345 -0.12040442 -0.1956443 -0.22985005 0.20462841 -0.18769822 0.12998699 0.14780764 0.32694212 -0.17234111 0.32961184 0.062292587 0.2343251 0.19745386 -0.12622605 -0.20178437 0.19126749 -0.48143095 0.01184266 0.044622708 0.101047985 0.02799472 0.260843 0.13459112 0.36784717 -0.009129304 0.19461666 0.10720601 0.033735607 0.022405561 0.008125842 0.1469334 -0.0048783617 -0.17383727 -0.11510222 0.10058471 0.028669313 -0.3524541 0.19392693 -0.055790115 -0.2400069 0.0038898773 0.019416573 -0.0327455 -0.19734432 0.10408913
506 -0.14933212 0.008326481 0.15297633 0.42341158 0.21817185 -0.1641331 0.057848416 0.051266536 0.4194544 -0.16673756 -0.19217305 -0.12940866 0.27224532 -0.092829704 -0.28019324 -0.14447288 -0.0136354575 -0.12570985 -0.12772177 -0.0032092487 -0.14435469 0.022681434 0.014154976 -0.14266339 0.04088536 0.11291891 -0.12927482 -0.07550909 -0.31676975 -0.17387854 -0.1369641 0.13004018 -0.12935297 -0.1425583 0.0032998882 0.014886753 0.1757531 -0.06732666 -0.31512615 -0.11780853 -0.108439125 -0.06528174 0.2789838 0.14376791 -0.039100695 0.36175025 0.1204554 0.11397869 -0.30016273 0.06289807 -0.09246267 0.14809273 0.25345287 -0.28793526 -0.3212215 0.114095554 0.14917451 0.11596603 0.16917741 -0.28382382 -0.1572714 -0.023570165 -0.30777255 0.18573514 -0.15936168 0.10798428 0.041899424 -0.16638951 0.008961327 0.20450433 -0.021327564 -0.013716036 0.18082526 -0.22258712 -0.12676962 -0.29793677 0.20663658 -0.05241701 -0.0039288416 0.0010159065 -0.28791216 -0.23743308 -0.07745231 -0.26049656 0.01694452 -0.022541562 0.10891728 -0.10055281 0.03544927 0.13822646 -0.15412273 -0.16351978 0.047107663 -0.088255994 0.106838316 0.22890745 -0.1517617 0.11723224 -0.08056175 -0.23458457 -0.15628925 -0.27037805 0.056081537 0.012257671 0.18454996 0.22340661 0.19876121 -0.27088624 -0.04046052 -0.12938039 -0.24406384 -0.25871307 -0.27145195 0.14816016 0.11659938 -0.20818312 0.26805463 0.3484484 -0.018145105 -0.36669767 -0.07096364 0.014734179 -0.19171517 -0.05820779 0.068491034 -0.04725062 -0.123057656 -0.15849078
951 0.007530163 -0.08008824 0.104933575 -0.008054898 0.06812937 0.008518065 0.034159917 -0.011210297 -0.16094209 -0.2202327 -0.026734862 -0.061511967 0.0016330103 -0.24748132 -0.129408 -0.10542982 0.29771507 0.032643396 0.036522754 -0.52827996 -0.1684489 -0.009640198 -0.06325803 0.16823642 0.27440214 0.10653913 -0.053752385 -0.22572643 0.034134123 0.019763963 -0.23800018 -0.10455066 -0.074118465 0.27051365 -0.20570989 -0.15164666 0.12496754 -0.22744474 0.01795788 0.01599713 -0.11082512 0.11038824 -0.040541366 0.21989714 0.062415954 0.18459193 0.14315946 0.18246761 -0.08608567 -0.06381394 -0.39625862 -0.1921036 -0.040050935 0.063134044 -0.37336367 -0.22948463 -0.004703156 -0.08116252 -0.19256318 0.02902523 -0.01590048 0.18101026 -0.17546542 -0.08183822 -0.17374894 0.08091443 -0.06358611 -0.23258443 -0.18876728 0.048161626 -0.19306381 0.2537018 0.098035105 0.10451265 0.19339082 0.17910932 0.2727519 -0.30220622 -0.17949936 -0.107686296 -0.5029334 -0.07800028 -0.14987494 0.0009707733 0.123978525 0.054307967 0.38071355 -0.109187074 0.3491237 -0.39632127 -0.11662277 -0.051042456 -0.08001033 0.009071237 0.04692025 0.15071383 -0.12312706 -0.10644258 -0.077113874 -0.19455945 -0.023493595 -0.07028436 -0.10466985 -0.055724412 0.36701083 0.20175636 0.11469781 -0.12962995 0.17169206 0.13412108 0.29648775 0.016381387 -0.14518479 0.115232915 0.028161677 -0.16174479 -0.048904575 0.1130559 0.083072595 -0.22692838 0.31554398 -0.08445914 -0.40498367 -0.22885217 -0.047873657 -0.15698057 -0.26714414 0.186622
362 0.08129868 -0.035775576 -0.10296065 -0.00482662 0.120764755 -0.10331385 0.110647775 -0.12639147 0.14226931 0.011308886 0.21961668 -0.0061123096 -0.07206911 -0.24404766 -0.026362702 -0.18448672 0.14874193 0.021392852 -0.21077584 -0.11109016 -0.14266594 0.046079483 -0.2525311 0.15269458 0.005927291 -0.2593506 0.071072124 -0.010930854 0.10739363 0.15443112 -0.29756933 -0.09240484 0.024203777 -0.110510685 0.027161658 0.056919087 -0.098564476 -0.048775647 -0.07528632 0.07589701 -0.2347273 -0.06765616 0.24924518 0.15911914 0.084948525 0.1334486 -0.12139142 0.10788116 -0.029766612 0.190786 -0.12899539 0.03930582 -0.021725483 0.15413009 -0.0053972895 0.120590314 0.043793187 0.21239065 0.10876069 -0.1863527 0.34343594 0.09149233 -0.14126252 -0.13082124 -0.35731307 0.033763573 -0.06331784 -0.087587096 0.048929602 0.2414821 -0.23965135 0.18049584 0.065236904 0.00060178095 0.016569722 -0.12263403 0.15856145 0.11779455 -0.21142377 0.020880127 -0.3485431 -0.0464372 0.14667399 -0.38346118 -0.22101283 -0.10223282 0.11883449 -0.24453557 0.35201702 -0.0999333 0.22658509 0.20342165 0.12300687 -0.21879512 -0.15441748 0.21167932 0.40629405 -0.05761222 -0.08190034 -0.29576433 -0.1795006 -0.06621033 0.09180914 -0.2973885 0.51338357 0.1273761 0.27994907 -0.23976834 0.012057893 -0.09981053 0.0771107 0.13101164 0.0774799 0.11138601 -0.037954584 -0.20629574 0.08476699 0.011320679 0.05918351 -0.4637086 0.4348218 -0.20125508 -0.0815628 -0.34505177 -0.16677982 -0.32712534 -0.106975764 0.039528217
700 -0.005134483 0.0826953 -0.015789237 0.051857103 -0.017597338 -0.02069619 -0.14490294 -0.006591642 0.19320512 -0.15683147 0.0019235448 0.10618524 0.28188947 -0.21689832 -0.15285888 -0.08926796 0.26317665 0.0037119118 -0.0678803 0.13782842 0.32745966 0.14508574 0.10892013 -0.045693275 0.008552048 -0.09584987 -0.024142228 -0.20934452 -0.2423566 -0.01210014 0.022825517 0.0037616964 -0.34436113 0.08748476 -0.08020945 0.19313344 0.15884095 0.10768719 0.061188743 0.19629973 0.05768601 0.22762783 0.28533438 0.14702019 0.1512913 -0.17285623 -0.18696542 -0.074522644 -0.1319381 0.1105083 -0.10249389 0.07948576 0.1482889 0.07795602 -0.3415579 -0.0241283 0.04809341 -0.13511583 0.15086685 -0.28397828 0.044151917 0.121392444 0.031006781 0.21578097 -0.077828184 -0.079644166 0.13473134 0.01948356 0.15380147 0.099681176 0.0645743 0.12216607 -0.05463441 -0.13236654 0.08956407 -0.04072283 0.13695636 0.043389123 -0.2343191 0.20696689 -0.30623743 0.24261452 -0.048145678 -0.12776035 0.007974314 0.09811299 0.27004296 0.07212283 0.32431132 -0.016695896 0.24989828 -0.16024767 0.12759748 0.05033303 0.14644769 -0.114688605 0.19954847 0.104351714 0.11484403 0.17296544 -0.07197193 0.12802511 0.17377806 0.039756913 0.38355616 0.079547845 0.059827026 -0.33798414 0.09161668 0.05507732 0.16736422 -0.09251174 -0.24042189 0.20038593 0.20740615 -0.09870166 0.19275689 0.4206282 -0.18407664 -0.49905872 0.19030464 0.09754915 -0.11497165 -0.19517225 -0.24703212 -0.4423858 0.108235046 -0.08672919
923 0.041666508 0.12221964 0.3264105 0.121168196 -0.08350063 0.0843524 -0.11850109 0.21584268 0.15981948 -0.15076432 0.08324806 -0.21791188 0.101589024 -0.2581104 -0.35779837 -0.1599111 0.31923783 0.16897605 0.24515633 -0.32804838 -0.021954365 -0.07502094 -0.030258177 0.028688893 0.24193065 -0.08034652 -0.05938846 -0.14987417 -0.24141532 -0.015141096 0.10796644 0.09343955 -0.1388567 -0.19495781 -0.3988194 0.2166428 0.19874111 0.16615608 -0.32767624 -0.03646026 0.018411303 0.089341596 0.20986404 0.1903002 0.122987375 0.16495194 0.031203318 0.37880224 -0.07162409 0.08350925 -0.11299739 0.21257417 0.096333295 0.08484404 -0.06568182 0.103148155 -0.028922169 -0.024119584 0.10788911 -0.18228635 0.04753 0.11697965 0.07739863 -0.0017965309 0.026789641 0.29184142 0.22958149 -0.19988038 0.094969936 0.064624205 -0.01636611 0.017729256 -0.004328291 -0.179625 0.1125877 -0.21317363 -0.04900417 0.05226339 -0.00532819 0.010771616 -0.25549826 -0.15474173 0.02310799 0.09515124 0.17939012 -0.01562872 0.1073075 0.07884412 0.1686002 0.11022029 0.124897525 -0.13973954 0.023667451 -0.05330612 -0.04074294 0.19915971 0.24633522 -0.21489953 0.16828585 0.013484183 -0.045625534 -0.059189852 -0.0013240376 0.010159328 0.054625273 0.14676085 0.0221497 -0.2822107 0.07043171 -0.16076902 -0.12227211 -0.29326227 0.015890721 0.042506922 0.34388855 -0.27443078 -0.06055149 0.3955062 -0.052397657 -0.1653201 -0.11279451 -0.015906792 0.22272268 0.13143755 -0.07471277 -0.1213532 0.011660305 -0.099693395
2 0.009479959 -0.20811607 0.10341336 -0.1139119 -0.057203606 -0.25651988 0.0935889 -0.09664956 0.07961323 0.107820414 0.08596512 0.22875746 0.028707057 -0.18994662 0.03788129 -0.043554366 -0.053338647 0.41042817 -0.09414747 0.08662466 0.31708077 0.075082235 0.15781568 0.14043055 0.17988887 0.056961946 -0.13123189 -0.17381348 -0.13324577 -0.0024919154 0.07088568 0.13136166 -0.3034083 0.18737467 -0.046263903 0.26437545 0.24451546 0.15692489 -0.053978357 -0.0555688 0.17741458 0.20605825 -0.008999655 0.18571694 0.17610836 0.0044710003 0.065424174 -0.018589413 -0.017685618 -0.3861298 -0.24531318 -0.12165465 0.1459258 0.0200516 -0.27523217 0.23917854 0.40296167 0.15345281 -0.09035566 -0.1177988 -0.16808455 0.061215214 -0.032723274 0.1428182 0.28070125 0.20600204 -0.26589113 -0.14117765 -0.25873533 0.17954038 -0.116656385 0.05595004 0.06785683 -0.07581011 0.15774834 0.0787481 0.24171214 -0.101136886 -0.025141964 0.07908573 -0.5184327 0.12532854 -0.22732368 0.09321893 0.048470065 -0.107466504 0.14306983 0.22187597 0.22487621 -0.1473068 0.42323387 -0.0083412845 0.23429705 -0.309611 0.19168729 0.08204491 0.26294267 0.04610355 0.09455544 -0.035565265 0.047704488 -0.01733483 0.013457894 -0.24461003 0.24231443 0.09023902 0.30118412 -0.09526609 0.18638267 0.047235638 -0.013910413 -0.0028693501 -0.1263716 -0.056660324 0.20232552 -0.28131226 -0.15964389 0.30346334 -0.13876422 -0.32534918 0.032820635 -0.025616288 -0.030869752 -0.23856142 0.10509093 -0.11691899 0.115480006 -0.09480087
546 -0.23361298 -0.0133578805 0.22672342 -0.16488606 -0.1920463 0.017362868 0.12095649 0.053763546 0.0101391 -0.11127592 0.016665345 -0.24221173 -0.1804044 -0.18285461 -0.10208528 -0.34183618 0.24435176 -0.028871655 -0.05372933 -0.06282763 -0.03540122 -0.13786626 -0.12120288 -0.066994436 0.23911056 -0.16033465 -0.06087981 -0.022402786 0.10349245 -0.38715047 -0.31024218 -0.1730711 -0.35503066 -0.111130066 -0.3504889 0.054242883 0.13826267 0.020954553 -0.046173483 0.09170464 -0.2706449 0.15722841 0.16424187 -0.049414694 0.2493267 0.06778761 0.04534227 0.10204434 0.2010112 -0.13714787 -0.2805351 0.035457052 0.014033076 -0.010059131 -0.035300054 -0.1123579 -0.06320023 -0.22333898 0.0020627673 -0.3743119 0.28115052 -0.16241723 -0.060897894 0.12316912 0.089231625 -0.066562004 -0.103837386 -0.12849672 0.012333665 0.044991456 -0.06030568 0.19183022 0.02936206 -0.014900566 0.14873868 0.04535883 0.3412072 -0.110565536 -0.1997142 0.118432246 -0.37020478 -0.1984464 0.23014176 0.02723416 0.40767008 0.14462712 0.09178611 0.015518145 0.08773408 0.11836562 0.25148806 0.01482357 0.19293733 -0.110730365 0.2112794 0.09701053 0.18391538 -0.02220261 0.12515965 -0.19462898 -0.18923777 -0.17487392 -0.01939339 -0.18453063 0.1320687 -0.15457343 -0.07893242 -0.16870724 0.04206199 -0.1223967 -0.022162393 0.2091672 -0.027650243 0.18398085 0.09423035 -0.1333213 0.06973338 0.38518685 -0.03277292 -0.3443068 0.040511075 0.12654519 0.14560105 -0.2973517 -0.11679349 -0.29625204 -0.08172459 -0.025468497
193 -0.022478478 -0.11234565 0.08097315 0.14650333 -0.22984093 0.16958116 0.13763744 0.07583442 0.029257026 -0.19536348 0.079257526 -0.14521182 -0.020283604 -0.22806475 0.043898135 -0.36857423 0.26420316 -0.020784358 0.180997 -0.04522126 0.16278966 0.0265066 -0.067681774 0.15282913 0.05189031 0.03635351 0.12958054 -0.053015504 -0.08537899 0.04842948 -0.117874436 0.011045487 -0.15360703 -0.04264875 -0.25014624 0.15767507 0.14409128 -0.03770901 -0.25030994 0.12051525 -0.02967927 0.1144145 -0.010445802 0.013791538 0.12196337 0.082321525 0.088154145 0.1479695 0.092980884 -0.085470974 -0.3217805 -0.13057847 -0.082711525 0.15567435 -0.2468204 0.016309835 -0.09242738 -0.20627506 -0.25810495 -0.27232963 -0.045342658 0.0247039 0.06792415 0.0074697095 -0.034539558 0.01198102 -0.0020723057 -0.111137964 -0.06077401 0.09569036 -0.06244949 0.26979777 0.10523977 -0.036028698 0.08530936 0.06228656 0.06531158 -0.19627585 -0.119634815 0.15665254 -0.26194754 -0.23574029 -0.052157488 0.08425627 0.25137824 0.11727838 0.06605747 -0.08901984 0.21895754 0.037632797 0.018725326 -0.12197417 0.21354806 -0.19310725 0.12101001 0.02684699 0.11782044 -0.1424706 -0.043164052 -0.35551423 0.042537525 0.1139067 0.023902772 -0.037563555 0.21574563 -0.2558877 -0.09217944 -0.24639934 0.23627453 -0.21224295 -0.011626143 0.1610793 -0.20372091 0.086171694 0.12235926 -0.34837985 0.028512876 0.28006902 0.055350617 -0.2591573 -0.03308252 0.087398045 0.31369582 0.029663809 0.057078723 -0.27888173 -0.05382815 -0.30851546
629 0.091434754 -0.015995136 0.050123062 0.021623256 -0.1322224 0.022619525 0.07235819 0.027679844 -0.07821371 -0.15138072 0.27294615 -0.15418275 0.00059370697 -0.18729159 -0.1898361 0.001979642 0.3149462 0.1452173 -0.06831169 0.022440426 0.10796441 -0.19202064 0.31152284 0.15264408 0.08046408 -0.18405747 -0.09435005 -0.007661377 -0.12517239 -0.19197717 -0.025261778 -0.036631834 -0.087667145 -0.14459865 -0.1264108 0.082266 0.32578278 -0.043745108 -0.08738057 0.034155775 -0.066353135 0.055089068 0.13403563 0.06478265 -0.03155531 -0.029249467 0.29561964 0.0029127393 0.09645965 -0.28592816 -0.24255782 -0.16362998 -0.041311648 0.20504281 -0.12559052 0.058229305 0.24590418 -0.07821013 -0.086302854 -0.04254963 -0.15305734 -0.11417389 -0.16086869 -0.18288602 -0.27257955 -0.091141336 -0.032134492 -0.27564964 0.27070266 0.042547494 -0.029913137 -0.10584802 -0.10313446 -0.30151075 -0.0035472708 0.12075694 0.06661601 -0.12311875 -0.19103287 -0.27533263 -0.19319887 -0.01219165 0.007987736 -0.035486717 0.14491321 0.06452948 0.30935797 -0.22630847 0.1692513 0.010806733 0.031548128 0.10940755 0.14169066 -0.12677595 0.27307808 0.12220418 0.3417472 -0.084317625 -0.34554213 -0.27400747 0.012446647 0.19828881 0.17845003 -0.044421423 0.0522211 0.026796324 0.070098944 -0.3079952 0.14841194 -0.062802196 0.103582636 -0.20183586 -0.08703958 0.031609878 0.040861104 -0.1869126 0.18058415 0.11899394 -0.109539434 -0.08928811 0.16272844 0.09636746 0.10619033 -0.1414913 -0.009984625 -0.37134013 -0.24025056 -0.10082368
356 0.0006601795 -0.19218345 0.14964528 -0.10558281 -0.33441904 -0.08970715 0.08833768 0.035545506 0.018282646 -0.07851453 0.27131557 -0.011718864 -0.117492475 -0.09640038 0.053164534 -0.038043346 0.20828074 0.24653557 0.034324147 -0.005592596 -0.016749552 -0.07208085 0.01052735 0.09224014 -0.07271634 -0.16967264 0.20944269 -0.049543593 -0.12991609 0.10700523 0.0018514899 -0.1344732 -0.098520674 0.0025091467 -0.078263335 0.13307056 0.008868252 0.16065826 -0.15882555 -0.18052131 0.03949645 0.07133223 0.017158775 0.060976174 0.14717919 0.043782923 0.0614831 0.2663064 0.14260595 -0.21546118 -0.17253223 -0.107480824 0.0445198 -0.13348202 -0.15380813 -0.053859238 0.058137916 0.036575064 -0.07432861 -0.112609744 -0.024534034 -0.0896567 -0.15126242 -0.1524726 0.038218327 0.1903652 -0.06490531 -0.11206752 0.13038343 0.20730095 0.010103133 -0.12708996 -0.074370086 -0.11429126 0.04973769 -0.016580326 0.1406315 -0.014163844 0.004404489 -0.0032605752 -0.37913948 -0.032460533 -0.12816395 -0.020938791 0.17625803 -0.18578723 0.07388578 0.13260192 0.12980454 -0.007523617 0.3213806 -0.1191602 0.32025287 -0.22829843 0.26507974 0.15359105 0.3102667 -0.16938634 -0.019170074 -0.23491088 -0.11040303 -0.086510606 -0.04554609 -0.20523362 0.39952967 0.10137948 -0.035094954 -0.0006447944 0.21090944 -0.24747357 -0.2784923 -0.1878366 0.032668546 0.17411125 0.02262527 -0.2877742 -0.009701426 0.2831413 -0.040929366 -0.33557338 -0.33775628 -0.04179918 0.36789694 -0.19634844 -0.24994914 -0.29505232 -0.06026791 0.0042059706
75 -0.08799571 0.013560047 0.14178199 0.030842267 -0.18491104 0.06770148 0.06708059 0.1150857 0.17336932 -0.13553643 0.2853644 -0.33556503 -0.079193346 -0.3585971 -0.18006456 -0.25319853 0.32873178 -0.014383197 0.2268425 -0.108255476 0.11886596 -0.061581537 0.013423921 0.018136386 0.16365415 -0.21088286 -0.124599054 -0.21494387 -0.1958323 0.0866837 0.002100347 -0.06603525 -0.2252529 0.045284968 -0.13789804 0.122690074 0.21861088 0.15346165 -0.10782007 0.05275072 -0.17709291 -0.10815721 0.04233916 -0.02465071 0.10947959 0.07897083 0.16305563 0.3214965 -0.037069596 -0.06480522 -0.19190736 -0.12282093 -0.108030014 -0.07122783 0.015220203 -0.018171897 -0.016016372 -0.054239817 -0.09670678 -0.20131129 -0.10213549 -0.13974704 0.13277033 -0.03276481 -0.1864018 0.014975518 0.08036708 -0.4750274 -0.15095238 0.23638873 -0.056569755 0.10771528 0.08219351 -0.09362638 0.04220603 -0.045032065 0.16765371 0.13879913 -0.21415363 -0.061193068 -0.054122794 0.13762459 -0.20070787 -0.02284063 0.00085367565 -0.027766146 0.3515713 0.13651395 0.17820628 0.020543965 0.04269488 0.1747927 0.18861909 -0.105475456 0.14162754 0.12894793 0.09988455 -0.21757777 0.03646003 0.07353694 0.08493092 -0.065966696 0.0023047589 0.03744607 -0.09933496 -0.066248484 -0.045217145 -0.3372054 0.10909882 -0.18797047 -0.10549899 -0.08363733 0.14135881 0.067578614 0.19345133 -0.15053366 -0.1136925 0.1294174 0.044586945 -0.2006848 -0.07755393 -0.1394522 0.21315616 0.15316215 -0.14070283 -0.17991574 -0.3835323 -0.15852447
280 0.11427272 -0.06453493 0.10077567 -0.077709235 0.13579683 -0.08779028 0.34878686 0.14270298 -0.0051390044 -0.10621538 0.2153072 -0.14904384 0.078953095 -0.23785304 -0.19103247 0.08042971 0.18569766 0.115553185 -0.05807159 0.022563957 -0.24079658 0.08412848 0.013228451 0.21882407 0.12586734 -0.23300312 -0.16337791 -0.037195053 -0.027587878 -0.19628818 -0.05617931 -0.037395947 -0.1203671 0.014929192 -0.14640152 0.14974423 0.09486472 0.13070878 -0.17704593 -0.2997712 0.0066491254 0.23548764 -0.025831778 0.076591834 -0.112495944 0.034559116 0.06237992 -0.008176118 0.13301672 0.064102754 -0.048783455 0.11604816 0.116509214 0.20380916 -0.13131525 0.17859337 0.5204504 0.09711332 0.11795453 -0.09021723 -0.10721564 0.1145908 -0.2937242 -0.14729509 -0.22536935 0.08608542 0.16043577 -0.067374066 0.1974449 0.11094797 -0.014847119 0.054379556 -0.1601997 -0.14926103 -0.22149737 0.005862636 0.08511111 0.04270373 -0.1422925 -0.2964534 -0.3700803 -0.0286087 0.021083245 -0.065126285 0.10311267 -0.14846034 0.2217538 -0.31161243 0.11414226 0.030147942 0.32137546 -0.019807456 0.14536504 -0.12448673 0.25719318 0.21113603 0.3066799 0.028201712 -0.010326993 -0.35910392 0.044665232 0.101715855 0.121713266 -0.063042484 0.13738108 -0.0024103392 0.09860064 -0.090035886 0.27639616 0.102011435 0.037754476 0.006815447 -0.10444387 0.04937944 -0.054062545 -0.19727951 -0.064174466 0.13520063 0.04143118 -0.3272721 0.38280222 -0.0031593675 0.058745775 -0.23030718 0.13057584 -0.28877887 -0.24511427 -0.12785502
987 -0.2150378 -0.0019920045 0.5350459 0.36773705 0.19231392 0.012409051 0.33303118 0.063034244 -0.05427308 0.0988345 0.1259754 -0.33267495 -0.050486624 -0.3388205 0.05659311 -0.13525516 0.07596305 -0.12125262 0.048451785 -0.3386958 -0.07816352 0.014826226 -0.021696897 0.19283083 0.1508776 0.06214583 0.02322646 -0.04485061 -0.200043 -0.038172126 0.079681896 0.22974974 -0.14658958 -0.21945475 0.051524878 0.029198172 0.19555864 -0.08619275 -0.26644725 0.18317631 -0.05286121 0.075489394 0.21831883 0.120411605 0.12613767 0.15830529 -0.02884823 0.079702154 0.07011726 -0.105686314 -0.4045483 -0.21692012 0.10773863 0.021150744 -0.25415322 -0.028699227 -0.025408793 -0.006186106 0.03310217 -0.07179782 -0.042972136 0.11182434 -0.23818928 0.107905805 -0.19577162 0.17653732 0.090034395 -0.28017566 -0.04318744 0.08621635 0.04905951 0.07944628 0.18370084 -0.23113807 0.00014586186 0.08997075 0.045147076 -0.35906902 0.009343604 0.12202107 0.0069852043 -0.096405484 -0.12369697 -0.016011424 0.076024316 -0.16290931 0.07960969 -0.05181783 0.19759504 0.20659843 0.034721736 -0.1634241 0.11476818 0.008206682 0.3018401 0.13460687 0.019699916 -0.038247067 -0.14494106 -0.19671014 0.098480135 0.049680855 -0.047208916 -0.10699036 0.019323431 0.21640453 0.33097252 -0.18386438 0.3775892 -0.08102125 0.027613495 -0.12876435 -0.09392632 0.14821519 0.33081567 -0.3450312 0.19189753 0.2899705 0.027191369 -0.15664199 -0.17695183 0.05460244 0.2645688 0.16283605 0.18032615 -0.046139833 -0.01136843 -0.08972414
416 -0.015241888 -0.15571496 0.12090349 0.08653662 -0.23048878 -0.13799727 -0.00018659342 0.103162095 -0.016143683 -0.20925051 0.14072005 -0.07931361 -0.03466391 -0.1688765 -0.0067915465 -0.26074752 0.48446196 0.13830096 0.29944745 0.006477287 -0.07501258 -0.043382023 0.25774723 0.048037786 -0.21018825 -0.11678952 0.06642337 -0.18524761 -0.11137278 0.09151005 0.026477376 -0.08281742 -0.025158873 0.11099871 0.15595092 -0.011322298 0.056646407 0.14332467 -0.3515362 -0.059561606 0.024627151 0.052822478 0.17695951 0.23145224 0.11537518 -0.0196436 0.14932415 0.26957607 0.06744586 -0.2481909 -0.11514201 -0.20565431 -0.024751205 0.02400264 -0.14407958 0.0021806585 -0.027088087 -0.12211055 -0.096322216 -0.004893337 -0.04182744 -0.04280745 0.044085044 -0.08993588 -0.06018015 0.013590994 -0.112111166 -0.11844201 0.14594749 0.133817 0.03001696 -0.050312143 0.02108849 -0.08541703 0.05594086 -0.1004493 0.09158127 0.11942297 -0.018961579 -0.13279104 -0.3490834 -0.19193321 -0.15057462 0.001316092 0.050311446 -0.01023909 0.1659904 0.078118294 0.21582729 -0.014127639 0.20158556 -0.10488615 0.19398798 -0.08976631 0.13798855 0.16497782 0.18309702 -0.06554274 -0.09058883 -0.15064487 0.05000623 -0.055109233 -0.19659139 -0.1304647 0.19575883 0.1871138 -0.060662124 -0.008657954 0.10279049 -0.4002327 -0.15832312 -0.1931982 0.02508583 0.11577626 0.14213595 -0.18952852 -0.1568376 0.23896356 -0.09936271 -0.37660754 -0.30910832 0.01782937 0.38509354 -0.26950657 -0.18879952 -0.41223454 -0.19735783 -0.14105345
915 -0.08727856 -0.017158387 0.1051828 -0.17076606 -0.14167638 0.038884636 0.04373688 0.22705933 0.04914364 0.03508501 0.11942469 0.08773103 -0.00958896 -0.17145224 -0.11893172 0.12030354 0.1836231 0.13564253 -0.01737175 -0.26205534 -0.076406084 -0.062033627 0.15692948 0.14142549 0.23871955 -0.14628974 -0.07111211 0.00621473 -0.04528531 -0.08255001 -0.32990026 -0.07892174 -0.061910767 -0.18127228 -0.16009615 0.22995144 0.25490367 -0.12784453 -0.0791993 0.049138553 -0.07361248 0.18044768 0.18355899 0.06974988 0.006808122 -0.10535009 0.2795944 -0.0555832 0.25377807 0.06112548 -0.16896294 -0.054449636 0.14072214 0.14029887 -0.24700971 0.030205129 -0.13996425 0.1491593 -0.07632491 -0.42452177 0.27798605 -0.014439091 -0.14231202 -0.052700263 -0.24957699 -0.054646906 0.09506963 -0.10373966 0.14555117 0.13752203 0.06038873 0.25518236 -0.023585172 -0.29264313 -0.02227671 0.089267716 0.17245205 0.022357995 -0.16502322 -0.10705181 -0.26021454 -0.076704636 0.08379872 0.07836743 0.24327782 -0.23980688 0.17023319 -0.13929163 0.19560327 0.022451403 0.3611147 -0.010281515 0.36516505 -0.09378033 0.29987195 0.0996157 0.23630354 -0.19312042 0.081414536 -0.14259377 -0.1535227 0.16615665 0.22421464 -0.056882642 -0.079072915 0.19284806 -0.03522118 -0.22152694 0.16146712 -0.12034158 -0.15749326 -0.2431179 -0.047889397 0.10061399 -0.04712843 -0.28931263 -0.059337176 0.10027719 -0.10508361 -0.359717 0.14173175 -0.1032007 0.09536528 -0.013122791 -0.19549738 -0.25300673 0.035594642 0.036868323
415 -0.032215726 0.015395863 -0.038296245 -0.043236867 -0.1833503 0.007843665 0.09309622 -0.053546444 0.14055781 -0.119783156 0.26227397 -0.14322014 -0.0018336405 -0.3648208 -0.11094138 -0.018094247 0.11760609 -0.047907487 0.18332574 -0.028409166 0.17226054 -0.1556303 0.16043931 0.1326155 0.08893072 -0.100993074 -0.22115356 -0.13846189 -0.09071792 -0.023302583 -0.0050674514 -0.05722804 -0.30225056 -0.1107944 -0.22869521 0.08098684 0.21490772 -0.015392484 -0.28377822 -0.055108514 0.05848205 -0.021415345 0.03762462 -0.09219853 0.110308245 0.061724544 0.18994002 0.108525075 0.17740461 -0.11054144 -0.21868293 -0.09061494 -0.12424593 0.09388799 -0.10242748 -0.06694342 0.081576414 -0.08178969 0.067607366 -0.1548418 -0.09172024 -0.090988584 -0.14147095 -0.12977645 -0.040970232 0.09705942 -0.018817367 -0.2681368 -0.031150382 0.38241106 0.06814037 0.1292845 -0.032872584 -0.024983445 0.020750832 -0.047339916 0.21721303 -0.016129838 -0.1665515 -0.018929213 -0.09087209 -0.084957995 -0.32823855 0.019947251 0.13036089 -0.06089699 0.32319355 -0.004712284 0.20052299 0.22499184 0.055369243 0.06488223 0.22365391 -0.21528316 0.1992196 0.1160525 0.027004529 -0.20566875 -0.033044722 -0.22049327 0.123592585 0.08183206 0.07622737 0.09386166 -0.043875672 -0.09231531 -0.03916599 -0.23589496 0.15397742 -0.25311086 -0.03797563 -0.14153579 0.058513843 0.11854186 0.15429014 -0.26539305 -0.00967948 0.07917978 -0.02602743 0.077471144 0.103287265 0.048274778 0.057135906 -0.10463253 -0.13782547 -0.08969747 0.011366866 -0.33915272
65 0.05320918 0.04371627 -0.067280136 -0.018011583 -0.28659403 0.07172125 0.2640283 -0.00476832 0.036613673 -0.13260718 0.4120859 -0.038473703 -0.09028411 -0.4810652 -0.14901838 0.037195046 0.23680693 -0.06555664 0.060369488 -0.015264272 0.011512227 -0.05453186 0.067699775 0.19413513 0.17751224 -0.27232385 -0.06200551 -0.12071022 -0.16052394 0.026044624 0.07570671 -0.089858316 -0.29210648 -0.13048878 -0.23801571 0.06366237 0.22481398 0.19691579 -0.3641331 -0.04297064 0.030646538 0.078154534 0.18382566 0.03288327 -0.15361868 0.0557493 0.02515391 0.10911446 0.25733626 -0.120477766 -0.28609827 -0.07618258 0.07183411 0.057433564 -0.15914339 -0.0802754 0.10999711 -0.0476418 0.12133786 -0.29002467 0.21194111 -0.14556745 -0.26933587 -0.06465343 -0.011084221 0.2640759 0.10856593 -0.21429315 0.14323752 0.18198225 0.080195 0.034028247 0.17631167 -0.16825795 -0.13219361 -0.006042597 0.11267737 -0.032015663 -0.29034385 0.14082497 -0.22783631 0.08992985 -0.06451616 -0.19105582 0.15245843 -0.051856373 0.054969016 -0.017171346 0.21290325 0.15429783 0.0331769 0.050762393 0.17323263 -0.22765678 0.11735401 0.097278975 0.32608864 -0.13607892 -0.04976172 -0.10611799 -0.05780945 0.031237109 0.06509134 0.19954722 0.13110569 -0.08031292 -0.07134429 -0.20159432 0.02050712 -0.0870233 -0.110570796 -0.21361515 0.02721695 -0.091250464 -0.015221819 -0.33369333 -0.17166409 0.1365438 0.08389968 0.046381433 0.02283489 -0.13930486 0.14759627 -0.09712803 -0.31771782 -0.090783365 0.04336402 -0.14772622
890 0.1788709 0.12724729 0.18284735 0.10315587 -0.07723863 -0.019553903 0.04488085 0.043882065 -0.09262984 -0.231379 0.2170564 -0.18695909 -0.051781934 -0.45522568 -0.05427148 0.08093186 -0.014358415 0.02273041 0.12184894 -0.22888656 0.064049505 -0.066018626 0.08631874 0.077740826 0.001249919 -0.19390376 -0.12198584 -0.14595255 -0.34408405 0.20188479 0.12934178 0.16863151 -0.19521187 0.049983364 -0.3149336 0.101825185 0.20398033 -0.06793544 -0.18936113 -0.002480889 0.11332646 -0.0026324294 0.08597604 0.050149597 -0.06981177 -0.08419144 0.14688243 -0.010781948 -0.20096165 -0.24760954 -0.33242503 -0.33995736 -0.14956045 0.090972506 -0.44468024 -0.25681522 -0.122549824 -0.10444387 -0.1659024 -0.13245691 -0.069005 0.21540067 0.124136716 0.1572899 0.036900744 0.09380195 -0.01463829 -0.18312813 0.19729973 0.14312991 -0.24482363 0.21767032 0.045774795 -0.34212855 0.043278553 -0.04278733 -0.028799245 0.034463443 -0.134477 0.08388349 -0.15991862 0.19497249 -0.21558577 -0.2560992 0.05350076 0.06091027 0.39068398 0.0026202989 0.33230314 0.11574361 -0.040981896 -0.20067413 0.11450131 0.1461784 0.25768328 -0.06571158 0.3258474 -0.22477531 -0.14730915 -0.13925922 -0.060518306 0.06931603 0.037101585 0.011089511 0.33652335 -0.09449781 -0.067569785 -0.16094723 0.34588814 -0.121181004 -0.05443651 -0.19928123 0.08713215 0.23358184 0.11140818 -0.09685809 0.08396244 0.1053006 -0.003504347 0.022465294 0.2981997 0.10034666 -0.06006484 -0.06747757 -0.074408665 -0.080867924 0.052573014 -0.037103113
742 -0.15801391 -0.00023470612 0.27337354 -0.11923346 -0.37081295 0.1873018 0.2680172 -0.10932961 0.06656654 -0.18603586 0.17655714 -0.12434976 -0.12854655 -0.21524 0.19683297 0.05308108 0.23863757 -0.05753508 0.16701332 -0.18679559 0.032924343 -0.04463592 -0.08026933 0.13286883 0.09395092 0.04502135 -0.026540495 -0.26505348 0.014335638 0.020313295 -0.060610197 -0.107765615 -0.2873892 0.14584811 -0.20579402 0.15011136 0.02677571 0.04967043 -0.22093776 -0.09402151 -0.09561828 0.043961156 0.082563244 -0.053112663 0.1542909 -0.08002778 0.11175738 0.064645134 0.17873713 0.08421524 -0.0914864 0.06418243 0.0035611333 0.02233539 -0.15621224 0.15918076 -0.0057328776 -0.11135669 0.19563828 -0.053444065 0.1273944 -0.018962141 -0.46652758 -0.19472712 0.025384113 0.16939755 0.10450602 -0.3972884 -0.06455236 0.22199506 0.0051618526 0.0908477 0.12799488 -0.07375476 0.045477867 0.07615874 0.31063515 -0.221117 -0.10445378 -0.09987118 -0.26305217 -0.1660314 -0.11119046 -0.17226903 -0.16771506 0.0035983715 0.036754895 -0.1622951 0.049517937 0.13716723 0.19990632 0.13020262 0.12510997 -0.06147163 0.23362058 0.31652626 0.09256414 -0.052934017 0.098654985 0.045430537 0.05511078 -0.09386488 -0.10574278 0.23286904 0.21949384 0.10258578 0.023946539 -0.24038815 -0.11503012 -0.0066964147 0.058868557 -0.06461472 0.055215515 0.08260325 0.104779944 -0.2905521 0.027791942 0.31923482 -0.13444187 -0.21209417 -0.034697022 -0.0656507 0.22506772 0.061064515 -0.120977975 -0.17097047 -0.0760312 -0.08373165
450 -0.008616145 0.090759546 0.1834934 -0.12833312 -0.15158792 0.08147631 0.24746981 0.19406016 0.15181744 -0.07600718 0.26618916 -0.12850311 -0.20228969 -0.21631078 0.104022115 0.19417457 0.23248173 -0.18142252 -0.041082703 -0.12351499 -0.028680434 0.005007448 -0.14164458 -0.020704031 0.06500332 -0.06854913 -0.054303803 -0.027467133 -0.13045454 0.03252467 -0.22730078 -0.11472639 -0.23603992 0.02153743 -0.07301499 0.010916926 -0.02796767 0.07677718 -0.2666181 0.16876663 -0.114779815 0.083071485 0.0010357959 0.096353225 -0.016116144 -0.04889629 0.022104314 -0.09191402 0.39055592 0.06974351 0.20300035 -0.12300734 -0.032782953 0.15099888 0.07007739 0.043091588 -0.2078809 -0.15578495 0.19563344 -0.44801483 0.22495222 -0.0074194823 -0.39531755 -0.115525275 -0.21361822 0.17326011 0.079017974 -0.34867248 0.14299504 0.18083948 0.00081572466 0.13876224 0.22052318 -0.18624246 0.18992284 0.03708046 0.04627218 -0.11026997 -0.1431604 -0.104428485 -0.31371772 -0.032951105 -0.091678016 0.020441083 0.01708416 -0.040057138 -0.066477336 -0.2045588 -0.006162991 0.21889502 0.21441023 0.090398975 0.26295456 -0.10678438 0.26093915 0.11956062 0.18023592 -0.20552576 0.13886862 -0.21560612 -0.17772357 0.053659678 0.14748006 0.028490514 0.4841285 0.10816154 0.17029493 -0.08225914 0.19903137 -0.21770597 -0.22809677 -0.1766367 -0.032270644 0.24885206 0.1521384 -0.20112462 0.08512492 0.17999436 -0.11208642 -0.41343123 -0.07374994 -0.114597574 0.03686858 -0.15153438 -0.16683263 -0.1836845 0.167113 -0.2359635
540 -0.2649684 0.017189115 0.27318034 0.11292903 0.2418819 0.03644594 0.22074404 -0.016520128 -0.01675686 -0.059564203 0.04638551 -0.046600442 0.032451097 -0.3461453 0.14786087 -0.03813787 -0.06524273 -0.14014879 0.014947438 -0.19939461 -0.043684117 0.23006713 0.17359655 0.16362216 0.12258104 0.12540638 0.038547125 -0.19042934 -0.05590787 -0.038718004 -0.08346122 0.1718469 -0.27728376 0.0051311315 0.18566339 0.17515196 0.16682027 -0.15374199 -0.018265622 0.19588938 0.02633232 0.26426107 0.2055986 0.12901816 0.13136794 0.21004713 -0.07677251 -0.012719812 0.11022631 0.002014011 -0.51546645 -0.1725505 0.14894672 0.038106743 -0.482309 0.06862399 0.18910423 0.14475834 -0.025170228 -0.16010383 -0.049803797 0.17662801 -0.16767405 0.08879265 -0.23848322 0.087825865 -0.027045563 -0.25735664 0.07607332 0.27716044 0.3184495 0.23951265 0.23270725 -0.14720196 -0.055993784 0.29526734 -0.051160287 -0.3366402 -0.17146243 0.14926903 -0.041089218 0.08033597 -0.18946432 -0.03383091 0.10521632 -0.118668236 0.07004845 -0.29383034 0.14909859 0.0014087636 0.36199468 -0.05830785 0.11462319 0.0040125134 0.32435524 0.07484113 -0.11151981 -0.10501847 -0.033127017 -0.067471996 0.18904564 -0.052221164 -0.085634634 -0.040538676 0.15990749 0.21447189 0.3304743 -0.08804952 0.2554645 0.065599956 0.17737544 -0.07019555 -0.13079815 0.07994925 0.12851226 -0.09717443 0.17711142 0.33994746 -0.11233533 -0.24078764 -0.08765331 0.004710356 0.27803794 0.18410122 0.20706253 -0.10283885 0.1529414 -0.05450783
687 0.070983045 0.13161243 0.103204995 -0.12339148 -0.17818376 -0.054827284 0.100912854 -0.10495706 0.14589433 -0.026124908 0.33270982 -0.17346556 0.14771396 -0.25360295 -0.30551738 -0.16474882 0.15551262 0.00071207614 0.2464517 -0.07129777 0.021957366 0.04180384 0.27608576 0.2361442 0.038473777 -0.30818394 -0.26173052 -0.054299746 0.038756263 0.06433964 -0.15070698 -0.08888197 -0.3189887 -0.011550184 -0.37779793 0.041529607 0.21077633 0.285742 -0.28836593 -0.2367027 -0.17281365 -0.034387413 -0.01660971 0.13006982 0.10600961 0.026180338 0.14752422 0.077472866 0.081428535 -0.03979251 0.042419054 -0.22551633 -0.010994492 0.0025174285 -0.107608184 -0.0841758 0.18224081 0.04400924 0.022108888 -0.27338758 0.05318553 0.021420153 -0.17008774 -0.042494416 -0.036660016 0.11368774 0.16313429 -0.045393236 0.15769483 0.19450186 -0.23016714 0.37651098 -0.015038159 -0.22252554 -0.09966822 -0.063437626 0.04717523 0.03780655 -0.0018303527 0.06419336 -0.12550431 -0.10070235 -0.07882585 0.07490979 0.18136954 -0.22111939 -0.016352886 0.0029035516 0.05227356 0.17370431 0.009541784 0.0073304703 0.26218727 -0.16782168 0.27787194 0.26531973 -0.034044523 0.030676693 0.2725368 0.059541963 -0.03131407 0.078295924 -0.012216782 -0.01242334 0.12632439 0.027753377 -0.30569625 -0.20737645 0.10363005 -0.24065883 -0.094320565 -0.2038251 -0.0074517415 -0.13405 -0.025834609 -0.32795712 -0.24299255 0.40921286 -0.06316682 -0.25687304 0.06695956 -0.12305147 0.26133475 -0.117326066 -0.027866865 -0.23352145 -0.07696173 -0.27890393
189 -0.12299134 0.14640537 0.12788126 0.1667489 0.10061456 0.09710171 -0.056235626 0.1656903 0.28875196 -0.1875563 0.19789521 -0.10741863 -0.067708634 -0.40504363 -0.010474199 0.050562534 0.08398991 0.03589281 0.16443858 -0.009894661 0.08893562 0.103794806 0.3096116 0.041022636 0.10397309 0.1082699 -0.10508027 -0.27774796 -0.24660532 -0.15102196 -0.067456864 0.10191257 -0.19087939 -0.07705841 -0.21719007 0.11962439 0.20096473 -0.04653275 -0.10255566 -0.12582165 0.012217395 -0.047485065 0.2111944 -0.11712926 -0.20169632 0.056381322 0.20397964 0.07224783 -0.20094898 0.0023349985 -0.041337274 0.10325484 0.044683486 -0.18004529 -0.080927305 0.022710364 0.4452505 0.057990998 -0.19471882 -0.27934667 -0.013880128 -0.0113796005 -0.08075012 0.255258 -0.18114088 -0.010825053 0.106727056 -0.062181063 -0.061118834 0.0022374957 -0.19740923 0.10795699 -0.030371586 -0.2177882 -0.065795854 -0.063128546 0.28355005 0.20561706 0.08045631 -0.005333688 -0.11315667 -0.13578889 -0.052121785 -0.16836233 -0.01742463 0.03880989 0.29867908 -0.10810988 0.061551254 0.08512013 0.11510649 -0.013594289 0.12939906 -0.20287524 0.46589914 0.110680394 0.030696549 -0.077387966 0.19724904 -0.16405171 0.09919966 -0.090868436 0.080872394 0.13540196 0.18227398 -0.061243 0.11608106 -0.23415658 0.14403306 0.14426099 0.059199933 0.13153344 -0.12956855 0.32899573 -0.010184115 0.19785085 -0.063819386 0.34338328 -0.13232219 -0.28340936 0.18684797 0.005431939 -0.058529787 0.083115935 -0.020705028 -0.26159272 -0.4455343 -0.06351099
609 0.004156117 -0.054281846 0.12028555 0.24040423 -0.030691532 0.1157662 0.15303475 0.25015223 0.04527804 -0.11476192 0.21865344 -0.20653455 -0.10955763 -0.3351981 -0.23265193 -0.2153962 0.16838433 0.13960911 0.18736133 -0.26204303 -0.13531922 -0.14213805 0.046446614 0.21208073 0.15619905 -0.09475699 0.06792026 -0.1221322 -0.16799302 0.11115149 -0.010168023 -0.078913406 -0.13875555 -0.25017762 -0.3481799 0.16258962 0.19032447 0.017657498 -0.21841995 -0.17746803 -0.10703197 -0.08927287 0.32128042 -0.059116356 -0.08035625 0.14982246 0.16738683 0.24561213 -0.12994969 0.03621622 -0.16530003 0.04785579 0.014280053 0.0183771 -0.4006184 -0.06196148 -0.020029316 -0.09070726 -0.16142996 -0.1429197 0.008532429 0.18106937 0.16885063 -0.16344161 -0.079781584 0.17032859 0.101361275 -0.40189797 -0.27565074 0.19545881 -0.2545694 0.074282624 0.04716694 0.06691567 0.12253457 -0.089146696 0.11002376 0.0763034 -0.1398079 -0.028051855 0.039843507 -0.30104208 0.09362298 -0.16179773 0.23675227 -0.102984495 0.17693697 0.075609215 0.20886314 -0.06399488 -0.07021754 -0.0720803 0.10043932 -0.13014083 -0.0026822712 0.1697548 0.48449358 -0.1632976 0.025151024 -0.06856169 0.10024292 0.11005134 0.19908915 -0.17809689 -0.06297186 -0.09624979 0.050743207 -0.16489421 0.15937532 -0.08392481 -0.12954894 0.008733311 0.18419167 0.22357284 -0.023209099 -0.3078797 0.1877379 0.22758779 0.17280236 -0.11166736 0.22096267 -0.073835306 0.11445849 -0.056561697 -0.2810429 -0.24068555 -0.15774262 -0.027689012
569 0.23434532 0.18327647 0.1961287 0.1670778 0.06982463 0.014935925 0.11708067 -0.07827554 0.010510231 0.0062953182 0.28672102 -0.1052638 0.00038245658 -0.3037172 -0.059920095 -0.054465547 -0.15601623 -0.01548859 -0.13244002 0.062472582 0.011465646 -0.04579004 0.14011246 0.27894554 0.048376378 -0.2676635 0.06654449 -0.17173436 -0.26021162 -0.21823178 -0.02061649 -0.0066996133 -0.35145116 -0.060697634 -0.102687836 -0.0034622638 0.3006632 -0.10556818 -0.08107408 0.014864601 -0.00020995244 0.1893222 0.184143 -0.03159595 -0.026981892 0.046970844 0.52623 -0.12867622 0.07769416 -0.08741521 -0.16589989 -0.12906894 0.082775794 0.013606298 -0.05330645 0.25481465 0.22735395 0.11930033 -0.091672495 -0.27931115 0.052143544 -0.046606284 -0.11774586 0.15062663 -0.060754348 -0.10244127 -0.1462526 -0.31585962 0.037213646 0.17195648 -0.03729822 0.012240694 0.14525066 -0.31293374 -0.021023065 0.03195831 0.080774255 0.059719093 -0.11992473 -0.071638174 -0.25938115 0.04053098 0.05545614 -0.060339265 0.05755722 -0.07880815 0.1802388 -0.16566454 0.0817359 -0.015315728 0.3233494 -0.13606693 0.42990804 0.07154589 0.27434307 0.024742259 -0.05029076 -0.22964983 -0.059411746 -0.30817255 0.055951606 -0.062536806 0.24802539 0.06600509 0.17960918 0.3632293 0.3917274 -0.24676616 0.11163786 0.06829816 0.061815057 0.098954424 0.10244384 0.03818908 -0.15749896 -0.30637828 -0.048254985 0.13956487 -0.041222326 -0.14312793 0.15211084 -0.11690288 -0.14095917 -0.09267959 -0.19050944 -0.24229851 -0.11615606 0.043520547
731 -0.0004937993 0.02582496 -0.032949317 0.12953688 0.17184371 0.162307 0.1427003 0.087009504 -0.073047966 -0.10716193 0.10604935 -0.27209133 -0.017723905 -0.20773457 -0.26149154 -0.20717224 0.14018977 -0.13357978 -0.22062893 -0.1503653 0.15891212 0.13058223 0.28135085 0.11326746 -0.08121425 -0.24416395 0.09582084 0.047764286 0.17685202 -0.27234107 -0.069581985 0.04118679 -0.06002642 -0.027857862 -0.25739315 0.44723195 0.2383737 -0.048202578 -0.049687203 -0.011123055 -0.054986745 0.03203586 0.025036555 0.007816339 -0.06036157 0.14926562 0.06193786 -0.021238724 0.0260124 -0.031695455 -0.100964844 -0.12043921 0.1328428 0.0012003839 -0.3689986 -0.10409743 0.2746472 -0.21657655 -0.19763313 -0.13583843 0.15508294 -0.08946999 -0.2806261 -0.14206304 -0.1797839 0.1123661 0.3168018 -0.1103943 0.21724454 0.22963598 0.34233534 0.10323661 0.22043517 -0.23720658 -0.15624692 0.09246066 0.21440592 -0.07505505 -0.35816407 -0.20032999 -0.047046773 -0.21570918 -0.23929103 -0.026282636 0.24005908 0.10191052 0.030482171 -0.46634236 0.2205985 0.10739392 0.14353849 -0.05456711 0.09436689 -0.21715894 0.32379663 0.03309995 -0.107765324 -0.059691176 -0.12388144 -0.100182064 -0.031581715 0.121798426 0.07845899 -0.15193397 0.26919922 -0.014649503 0.1039774 -0.15488583 0.2377705 -0.16584645 0.111079216 -0.047356926 -0.26045212 0.021842422 -0.16728412 -0.016225306 0.4012288 0.3643289 -0.15510623 -0.16464765 0.2936618 -0.064689934 0.1637878 -0.09839787 0.012218217 -0.2657911 0.023193695 -0.08826189
454 0.25253054 -0.21771125 -0.052676085 0.17507124 -0.12404153 -0.17012143 0.20583943 0.09194448 0.28575766 -0.37954462 0.18615744 -0.17202774 -0.036176004 -0.4399869 -0.2836019 -0.18147154 0.3288604 0.14524926 0.047225196 -0.16945767 -0.038394943 -0.17789257 -0.046109576 -0.19760194 0.4437106 -0.0597107 -0.3674967 -0.13755953 0.015107254 0.11089238 0.00036388665 0.047977198 -0.026031157 -0.051014755 -0.18596853 0.072596855 0.21528436 0.0942374 -0.032607198 -0.08369601 -0.09317086 0.34673867 0.25983793 0.32254693 -0.033698294 0.088339046 0.09453515 0.09022629 -0.10557145 0.009089451 0.0034359596 -0.2870143 -0.42742252 0.0103164455 -0.15697248 0.06273624 -0.10739983 -0.18657285 -0.22594863 -0.0050322628 0.07916782 0.20002763 0.0096885385 -0.056054205 0.0009997827 -0.20719764 -0.1248145 -0.28140384 -0.010957988 0.12901928 -0.14265747 0.17814605 0.055580646 -0.09334107 0.009202856 0.17068008 -0.0052143265 0.006614045 -0.06663355 -0.013641327 0.05122793 0.14552431 -0.097896375 0.215411 0.18474525 0.22148645 -0.06221411 -0.42598125 0.26111925 0.13660158 0.076513626 -0.08645499 0.033630412 0.112646565 0.14181857 -0.0435146 0.40292373 -0.02756889 -0.09490567 -0.17137304 0.021712253 0.22061636 0.13694566 -0.22624788 0.17700052 0.109019965 -0.08749927 -0.3071614 0.10723265 -0.18786784 0.14505069 -0.3712106 0.10362807 0.08606219 0.28863165 0.0068676737 0.0065194382 0.04873592 0.2111609 -0.09773626 0.10443989 0.35880527 0.2796411 -0.07245791 0.040198777 -0.056086782 -0.39523187 -0.25643972
127 0.09584857 -0.07712367 -0.014854631 0.16280149 -0.035439193 -0.1701185 0.04672254 -0.03779006 0.30109352 -0.39622808 0.17561993 -0.026804404 -0.075377084 -0.48685846 -0.11756396 -0.13605721 -0.045007344 -0.2755627 0.27306437 0.06358441 0.10984247 -0.1570908 0.189193 -0.08718303 0.13865149 -0.1026475 -0.21435766 -0.087292776 -0.23026304 -0.1622788 -0.25272107 -0.036283456 -0.175912 -0.042654686 -0.16412705 0.10793142 0.34340283 -0.2653134 -0.1709084 -0.20774598 -0.03932878 -0.0087509 0.17850445 0.060064044 -0.23891343 -0.15403426 0.35957566 -0.083223216 0.1803884 -0.14630266 0.02010954 -0.11201357 -0.39141682 -0.036836226 -0.123123206 -0.05314853 0.114309356 0.055136863 -0.023310624 -0.3232788 0.0040548234 0.082005575 -0.2395366 0.07306042 0.030170783 -0.10674587 -0.095487826 -0.20358293 0.23029536 0.058566026 -0.019674014 0.22782184 -0.0005515088 -0.22903581 0.017031971 0.20344798 0.31744617 -0.05250514 0.09441112 0.13393441 -0.17272355 -0.09015178 0.06339787 -0.01716256 0.21576284 -0.02000239 0.20099835 -0.1453203 -0.028234966 0.31316853 -0.046222337 -0.19567151 0.217186 0.03406344 0.35224438 0.15516451 0.054866277 -0.10002414 0.03532934 -0.268542 0.0044617685 -0.0023019868 0.43975824 0.019937899 0.12603436 0.11513377 0.04953032 -0.0786891 -0.04795493 -0.011410835 0.1696627 0.056045305 -0.0035086628 0.056860514 -0.065626584 0.044927962 -0.10061906 0.31825978 0.10524141 -0.5181504 0.051451303 -0.18958694 -0.09236746 0.102566205 -0.056985203 -0.1260105 -0.16404003 -0.18841319
532 -0.12939285 0.024798531 0.04692905 0.39613745 0.0065018297 -0.3048355 -0.14724259 -0.058128558 0.3587348 -0.18383984 -0.14057107 -0.2559666 0.44912055 -0.23316975 -0.3776862 -0.26044506 -0.04828189 -0.020043192 -0.11899151 -0.1700597 -0.124936976 0.14153887 -0.10099796 -0.013307495 0.18050288 -0.19016917 -0.05861862 -0.16340652 -0.44626173 -0.10743368 -0.053887874 0.24724272 -0.20172489 -0.1234111 -0.09586083 -0.008226563 0.2497343 -0.048349682 -0.44034466 -0.00888616 0.087374546 -0.05943654 0.4125536 0.262429 0.025021277 0.17388342 0.019014364 0.22892594 -0.25821733 0.07876037 -0.077966005 -0.048402518 0.0014007706 -0.36447442 -0.3878722 0.18766838 -0.014040629 0.31131262 0.4338858 -0.2942968 0.033936027 -0.04429379 -0.29125318 0.21558194 -0.19715406 0.14445582 0.21041043 -0.12191594 0.24447483 0.27492702 -0.18887942 0.11347694 0.31137887 -0.1956945 -0.058292467 -0.46083298 0.1861611 0.026007634 -0.044276003 0.06363343 -0.22210048 -0.10910437 0.068819605 -0.12183415 -0.19547027 0.01733347 0.19206242 0.21045747 0.26102874 0.04287141 0.23735727 -0.16667157 -0.0339154 -0.26561588 0.19671702 0.12480651 0.068798006 0.2982199 0.019618522 -0.16272663 -0.05673058 -0.010625642 0.18096933 -0.16194199 0.024001788 0.15208249 0.12968294 -0.2996511 0.030189017 -0.028577078 0.0024041843 -0.06323578 -0.18672831 0.05857364 0.06260673 -0.044995863 0.0512481 0.29760343 -0.053716935 -0.087843016 -0.20831424 0.25946698 -0.16398492 -0.15097705 0.15571572 -0.20963177 0.02047911 -0.020975173
290 -0.060305398 0.14510946 -0.06268067 -0.03822649 -0.14266439 -0.09738228 0.1166627 -0.007474648 0.17211024 -0.2581558 0.19242531 -0.1124995 0.01849159 -0.2787749 -0.1450231 -0.071663514 -0.021355523 -0.011406087 -0.030800477 -0.07658286 -0.0784249 -0.21146867 0.2640214 0.22386362 0.14489923 -0.20535141 -0.10293431 -0.10908398 0.010316348 -0.12322621 -0.012482915 -0.010058874 -0.06164644 -0.15981835 -0.31967714 -0.051207684 0.25029474 0.06431028 -0.16473754 0.008266299 -0.08324775 -0.045039658 -0.052205063 0.052494626 0.10388199 0.2863129 0.17196235 0.14901005 0.10376589 -0.29946557 -0.38998553 -0.30536956 -0.11731166 -0.07021976 -0.24313119 -0.13872208 0.057979338 0.09304027 -0.06878916 -0.12173991 0.06606897 -0.019775039 -0.067364275 -0.10606325 -0.12916243 0.068581544 -0.10694838 -0.17449349 0.11784534 0.022441462 -0.038880862 0.27151033 0.017270053 -0.0998035 0.04317397 -0.0137535725 -0.14753172 -0.13095894 -0.14747828 0.071453474 -0.12557244 -0.008811566 -0.20026696 -0.07831854 0.21702637 -0.14011438 0.08446857 -0.100968726 0.27872553 0.20193252 -0.081832156 -0.01474798 0.24808352 -0.06832007 0.12520526 0.008847081 0.19194995 -0.12458106 -0.10692805 -0.25202253 -0.1767066 -0.049584858 -0.15564291 -0.005268386 0.24885322 -0.037629258 -0.17464739 -0.2919513 0.12014302 -0.39235604 -0.12760293 -0.30209383 -0.11230879 0.03335233 -0.06024988 -0.3190319 -0.18934758 0.23743044 0.021998398 0.018255264 -0.008632073 0.042843312 0.22172536 -0.02933453 0.08050331 -0.23214561 0.03401053 -0.41394165
517 0.09515718 0.082463406 0.06378607 -0.2030074 -0.3676623 -0.12880304 0.13848901 0.06848226 -0.06760374 -0.005647261 -0.019628905 0.066758744 -0.16356143 -0.18897316 0.09570903 -0.04440409 0.2577328 -0.044924535 -0.010088556 -0.04397477 -0.065863386 0.015355803 -0.030864244 0.0033649327 0.04964981 -0.1465028 -0.11991207 -0.13105209 -0.004704838 -0.15908898 -0.052448507 -0.14809532 -0.03473894 -0.043943312 0.21004768 0.08171418 0.056892052 0.019516274 -0.2392979 -0.115651175 -0.12821484 0.11526611 0.0493859 -0.07258337 -0.0028470496 0.06308717 0.21036458 0.14210764 0.19331598 -0.16873959 -0.12852369 0.04928077 0.12478919 0.027341405 0.050665 0.13533019 0.04517791 0.11730626 -0.0025584907 -0.07746728 0.01622685 -0.067845486 -0.31103522 -0.15920064 -0.05882278 0.046153475 -0.022100423 -0.29622054 0.11610373 0.14977106 0.10543457 0.14187261 0.20246546 -0.07508193 0.21393855 -0.044952918 0.31816778 -0.06416986 -0.11402928 -0.21109541 -0.12415549 -0.22109823 -0.128161 0.018511655 0.15831327 -0.08969993 0.15136276 -0.01931709 0.19872935 0.22624384 0.09996185 0.019641278 0.2911233 -0.18630423 0.3017866 0.20710485 0.25234702 -0.19601248 0.038550198 -0.12979288 -0.10187759 -0.06123971 -0.16847949 0.0911353 0.14415474 -0.048070457 -0.20295961 -0.0078053637 0.14702189 -0.3437944 -0.15222478 -0.32523188 -0.0047033182 -0.09152283 0.22226115 -0.2999834 -0.022670558 0.24177046 -0.03964684 -0.47839713 -0.017681584 -0.10485255 0.39674363 -0.17079356 -0.32490864 -0.39958486 -0.19317915 -0.12716492
534 0.12697887 0.07062365 0.38609737 0.08757281 -0.11636624 0.13705935 -0.1990566 -0.1678492 0.17130649 -0.17946135 0.38856372 -0.10571541 -0.04457954 -0.39347988 -0.26089314 0.04057982 0.14465888 -0.11965611 -0.07330331 -0.34550822 -0.009413437 -0.040184334 -0.04582974 0.108706236 0.17684121 -0.17373385 -0.1267468 -0.119392335 -0.33907816 0.07294413 0.007633854 -0.038142405 -0.1617851 0.20818952 -0.20551622 0.18124184 0.3366168 -0.16528311 0.0056250244 -0.26793784 0.09643152 0.1282453 -0.11868394 -0.15955892 0.08714893 0.29385647 0.2778845 0.052598163 -0.056994278 -0.08099336 -0.18140592 -0.27626896 -0.29414338 0.10305442 0.019869193 -0.5282498 0.16985512 0.19651236 -0.10675488 -0.14772858 0.020535639 -0.27178872 -0.41436464 -0.049124565 0.2928602 0.16587095 0.093837745 -0.33501709 -0.072199404 -0.1243957 -0.13692597 0.03847542 0.20704146 -0.13867965 0.2539347 0.17852439 0.09587116 0.030963017 -0.17237939 -0.27303264 -0.6203237 0.28245288 -0.1162898 -0.23232296 -0.1262623 -0.012721274 0.22249301 -0.23336367 0.007706438 0.015520283 0.034807857 0.20312363 0.060742114 -0.28369454 0.33803442 0.12687306 -0.13208114 -0.1958944 0.15596293 -0.16059405 0.16398081 0.045197807 0.091943696 -0.2251793 0.24366042 0.039299447 -0.051544517 0.14746441 0.28710586 0.27944523 0.056313843 -0.12408672 0.23744027 0.33524537 0.0045693186 -0.09489997 0.09240513 0.11866743 -0.20729151 -0.05176188 0.058696628 -0.08038884 0.23027319 -0.12644811 -0.1731267 -0.050135586 -0.09122978 0.27189285
53 -0.01475855 0.092608646 -0.03034907 -0.12996277 0.11356636 0.11926654 0.12209965 -0.014287622 0.11354333 -0.23241694 0.17518617 -0.2969377 -0.121193536 -0.54370964 -0.1553154 -0.10536598 0.25582585 0.083921954 0.11439435 -0.028442672 0.17707728 -0.02448212 -0.15500984 0.2530951 -0.039183054 -0.11119154 0.13317584 -0.39208707 -0.13286284 -0.21303539 -0.036824387 0.0021355469 -0.13451846 -0.07028539 -0.13089105 0.21368551 0.27998525 -0.17647141 -0.16043898 -0.069769636 0.004847394 0.032435443 0.024047403 -0.021654809 -0.024305739 -0.006424942 0.098059714 0.21692327 -0.06397617 -0.09904934 -0.28386953 -0.15586884 -0.036515668 0.2277007 -0.23242246 -0.10802018 0.069658734 0.043906003 -0.20710969 -0.035206724 -0.0431765 0.13797273 -0.01755375 -0.06211306 -0.16565435 -0.0024139215 0.014886083 -0.26630145 0.25963968 -0.08877433 0.26271227 0.29391256 0.26282093 -0.14882116 0.12369345 -0.18234213 0.007005122 -0.19743693 -0.26468125 -0.012692527 -0.17654365 -0.042318836 -0.23487303 -0.0307562 0.096830554 0.15347075 0.1841207 -0.04375725 0.2686494 0.223957 0.033758957 -0.08695863 0.14362666 -0.15268052 -0.021291077 0.013062913 0.120746605 -0.06577634 -0.22857629 -0.17190516 -0.08537023 0.026164426 -0.023997344 0.24818519 0.023672258 -0.10990347 -0.011489821 -0.31146276 0.15762268 -0.14548497 -0.11570845 -0.13746966 -0.013302155 0.17522706 0.014034962 -0.11519532 -0.2246976 0.07870072 0.056336794 -0.18587907 0.17124861 -0.29359093 0.09593133 0.091534585 0.21080083 -0.35856923 -0.086377315 -0.24057908
248 -0.229479 0.089724995 0.23623817 -0.09906732 -0.15325667 0.046640493 0.106223814 0.023388514 0.20990446 0.0056094266 0.026012722 -0.008283731 -0.04261429 -0.34482723 0.14237833 -0.14375418 -0.03183681 -0.2742871 -0.25662932 -0.1732025 0.006132586 0.0836475 0.045733422 0.1660061 0.14341247 0.12942743 -0.10053251 -0.17332895 -0.16793011 -0.099394776 -0.08923257 0.10704624 -0.13818428 -0.23065734 -0.032319188 0.052217077 0.38769493 0.1809981 -0.17599675 0.09528735 0.10699015 0.062402427 -0.048049252 0.01906616 0.09237558 0.12302039 0.023385143 0.16961369 0.09801113 0.08508416 -0.25644085 0.043095224 0.12012826 -0.16358493 -0.30627358 0.21932387 0.14778315 -0.084686786 0.042982955 -0.4125558 -0.008763272 -0.16628987 -0.18535535 0.17769718 -0.057670433 0.123132825 0.07048178 -0.19359653 -0.0733552 0.3742712 -0.061483286 0.19929084 0.13430062 -0.15951286 0.022533119 0.14970362 0.17832555 -0.081330426 -0.23115279 0.048933674 -0.05524095 -0.11608007 -0.106447056 -0.16043513 0.111177646 -0.13537584 -0.043632917 -0.17466028 0.10646023 0.21113074 0.10009198 -0.025835017 0.27953127 0.0031147043 0.17605898 0.040069293 0.057567526 -0.17565879 0.13639487 -0.13815182 0.15569496 -0.09502814 0.009175312 0.091616444 -0.0060516405 -0.05280328 0.063750125 0.01363053 0.5574032 -0.050088406 -0.077063315 -0.16337246 -0.078776464 0.100281544 0.18124051 -0.54741156 0.030784104 0.32343084 -0.21055053 -0.23429702 -0.14787178 0.082535826 -0.06522472 0.20148076 -0.057798307 -0.13403133 0.008154798 -0.16503172
32 0.12526654 -0.1576594 0.17171025 0.30763668 -0.05361208 0.16913773 -0.06543676 -0.20520647 0.053504013 0.05378958 0.25216854 -0.087189116 -0.017075317 -0.16743387 -0.1175271 0.14256307 -0.155089 -0.05114816 -0.122665375 -0.13435797 0.06338237 0.05783792 0.010267224 0.062137064 0.09602494 -0.0483149 0.0050712987 0.09413589 -0.07459308 -0.22977838 -0.1859129 0.20255837 -0.25240925 -0.017474998 -0.26305205 -0.0010863107 0.32936245 -0.25933388 -0.1635869 -0.08986198 0.0078839315 0.16757771 0.05912715 -0.08199781 -0.14589736 -0.0034486356 0.2654517 -0.039031643 -0.12586811 -0.2625877 0.013740245 -0.0805439 0.017347816 0.14236568 -0.25193557 -0.1679833 -0.02269873 0.1663427 -0.08432398 -0.50064474 0.09320185 0.047528803 -0.39018387 0.28194624 -0.16457881 -0.04622376 0.33539972 -0.045724187 0.14116815 -0.16004805 -0.19413042 0.2915297 0.13775015 -0.35174918 -0.10641451 0.07815317 0.050360378 0.028946267 -0.09491275 -0.056676347 -0.26437125 0.041840132 0.053581484 0.052162237 -0.061770137 -0.08155249 -0.121217 -0.12162419 0.11030656 0.086745314 0.23082165 0.09958317 0.3019412 -0.20826417 0.5410393 0.15385798 0.16765945 -0.07876964 0.032243997 -0.31958508 0.14272578 0.081737205 0.010437139 -0.15740918 0.33222458 -0.009399896 0.34434584 -0.24743168 -0.01002614 -0.069070555 0.19670275 -0.035765544 0.027645305 0.04147707 0.023101287 -0.061568245 0.02636886 0.6166881 -0.035691146 -0.21564709 0.004730141 -0.11604688 0.048315223 -0.1600348 0.23351298 -0.101176254 -0.16795656 0.2429215
769 -0.28784752 -0.10632069 0.24978782 0.1361942 -0.14554763 0.087851085 0.3803333 -0.16404025 -0.00084359193 -0.21299376 0.028761365 -0.14022729 -0.15514205 -0.38885 0.37889388 0.12408621 0.3232163 -0.005817394 0.23256274 -0.095166266 -0.06451302 -0.12633297 0.027122216 0.2608872 0.2107702 0.27409345 -0.028369954 -0.26184177 -0.15965313 0.053139165 0.10565892 0.123031415 -0.42236865 -0.012389126 -0.1487165 0.06782079 -0.00021738213 -0.0027173217 -0.26625127 -0.027485302 -0.012654731 0.015997324 0.1888385 0.08393123 0.16285096 -0.012991151 -0.0011822119 0.096360356 0.041112203 0.16261673 -0.19639216 -0.2793866 0.10920744 0.08635746 -0.20102328 0.1485657 -0.0026210013 -0.16613464 0.15703602 -0.067441 -0.007876242 0.0337402 -0.23474158 -0.029002212 -0.02462687 0.22544649 0.010722118 -0.32642114 -0.15528528 0.21591234 -0.022314662 -0.012552567 0.1914008 -0.010590522 -0.013530913 0.114124976 0.0018376836 -0.40507436 -0.039006907 0.015645199 -0.26359272 -0.27575615 -0.019044697 -0.23797776 -0.14920294 -0.12450661 0.028658338 -0.29081944 0.09984628 0.052448504 -0.040537555 -0.0393628 0.24467917 0.18269877 0.22093482 0.20546913 0.015570959 0.0137868 -0.09075828 -0.069864936 0.17258675 -0.10099268 -0.07038663 0.39201838 0.24866766 0.23375037 0.23302726 -0.32345662 0.25363767 -0.09025678 0.21206366 -0.20721933 -0.114216 0.096487135 0.11514696 -0.37561774 -0.09803271 0.3621558 -0.27094787 -0.11558212 -0.057506118 -0.07092622 0.033528466 0.21241547 0.11871635 -0.08445896 -0.14572996 -0.036025874
267 0.015188485 -0.22287709 -0.06836714 -0.174737 -0.08870647 -0.17608641 -0.01037306 0.079486534 -0.2529605 0.060912296 -0.06958418 0.12407427 0.08563767 -0.2960274 0.031166838 0.023756096 0.56832564 0.012137483 0.028746758 0.024842503 -0.2882067 0.057636663 0.15492524 0.10955386 0.19065578 -0.37135977 -0.21115294 -0.18100537 0.054840043 -0.1836898 0.001301716 -0.16932799 -0.07819251 0.19599558 0.22624461 -0.04189708 0.066327825 0.047605813 -0.21675652 0.037099704 -0.2442733 0.30262467 0.10027064 0.18609186 -0.0970342 -0.21288629 0.030369092 -0.05730342 0.12107706 -0.06197436 -0.10845696 -0.011453337 0.082082815 0.36309984 -0.05718016 0.16904502 0.10476801 -0.14924262 0.16897216 0.053306375 -0.04641612 0.11925057 -0.114643134 -0.028177654 -0.37964728 -0.22102699 -0.06191128 -0.34841257 0.20470005 0.15776071 0.24808821 0.03143184 0.13513276 -0.16613041 0.13056013 -0.085998215 0.3827691 -0.099672325 -0.11614662 -0.34123775 -0.36544234 -0.030065242 0.0029959069 0.023443429 0.15991376 0.1299282 0.31591737 -0.031720407 0.19569291 -0.25273058 0.16671371 0.11141464 0.098012686 0.0386938 0.22411855 0.26081786 0.40460563 0.079246454 -0.2245886 -0.009826411 -0.18941198 -0.01880993 -0.09760473 -0.06014402 0.4645117 0.20605515 -0.09931399 -0.06907709 0.27031443 -0.14805885 0.08855586 -0.2960078 -0.13448529 0.038855195 0.19394577 -0.16703233 0.07356618 0.12616344 -0.11322224 -0.52274007 0.044608563 -0.0534079 -0.031117594 -0.25604263 -0.3338515 -0.37691253 -0.2550513 -0.09208806
528 -0.00608335 0.021085378 0.07077498 -0.13588248 -0.14831455 0.16043073 0.23230313 0.09185914 -0.03273387 0.09099889 0.09872526 0.039457075 0.031124273 -0.028255146 -0.2650736 0.12597536 0.3219953 0.23588446 -0.061916802 0.20704482 0.022544948 -0.33266845 -0.3933925 -0.087956086 0.29809815 -0.0934918 0.038495567 0.14866072 0.2702543 -0.058061104 0.10072722 -0.033628568 -0.112957224 -0.16731553 -0.4661034 0.02867222 0.14514603 -0.021102007 -0.06153749 0.13894182 0.005945393 0.00557407 0.13124894 0.107138045 0.21421815 -0.06908307 0.068024255 -0.016908657 -0.105951056 -0.19876382 -0.3383597 0.03642061 0.16524574 0.11606229 -0.32092646 -0.16015454 0.06786832 0.11128815 0.16733786 0.052340653 -0.0089682415 0.109546274 -0.44212225 -0.041052073 -0.12183874 0.32144627 0.13867389 -0.07538202 0.10083363 0.016756887 -0.10249123 0.27496052 -0.04341286 -0.32162014 0.03835146 -0.042754825 0.16228361 -0.23542342 -0.0026781044 -0.10250005 0.06059342 -0.026146483 0.13733725 -0.07608754 -0.045908518 -0.24977784 0.42032555 -0.13363792 0.30642015 0.37335396 -0.076766826 0.17714544 0.33533067 0.22096945 0.088460505 0.14356223 0.309515 -0.030153178 -0.10302282 -0.25584337 -0.16886005 0.12658188 -0.022861306 0.003485569 0.5181125 0.0047455733 -0.060676735 -0.2492984 -0.05167042 0.17438331 -0.028731069 -0.2884058 -0.22864619 0.16769211 0.10443264 -0.15349959 -0.24867652 0.28099605 0.15408047 -0.62981194 0.0053964257 0.024728462 0.35632938 0.013385308 -0.21562685 -0.2864725 -0.1148508 0.081010506
633 0.015047185 -0.18122531 0.063418254 0.066837795 0.06523529 0.1917932 -0.015197196 0.00015130214 0.036055293 -0.056478687 0.24698892 -0.27212006 0.12748434 -0.19765395 -0.08880895 -0.34322065 0.38465697 -0.024105143 0.19799842 -0.16774245 0.23841643 0.1451034 0.049963336 0.27094036 -0.056244507 0.093095005 0.14395796 -0.07812578 -0.08323129 0.06952402 0.10593682 -0.07165607 -0.059359018 -0.025615878 -0.18133348 0.22887036 0.22452377 -0.07795573 -0.04699765 0.09804185 0.01512112 0.057786413 0.15615693 0.11007749 0.042270113 0.05365997 0.10656478 0.1797774 0.0071274242 0.14653398 -0.23412733 -0.35498643 -0.039937105 0.20711778 -0.24421163 -0.087680936 -0.069287844 -0.2420489 -0.20798624 -0.19215572 -0.04846481 0.13704765 0.019007826 -0.06229299 -0.13206734 0.024078393 0.13131963 -0.18689795 0.20994186 -0.016169965 -0.075186096 0.39961225 0.1872679 -0.018658092 0.20964728 0.070633985 -0.123313636 -0.19594069 -0.26588774 -0.009717822 -0.100339375 -0.0111124385 -0.18319632 0.27278742 0.106455706 -0.05505578 -0.0031820033 -0.28003645 0.14443813 0.0359245 0.183082 -0.24769992 0.27068332 -0.14526471 0.10709304 0.0537259 0.12884831 -0.23416048 -0.020772174 -0.102315724 -0.056071613 0.088191725 -0.039938096 -0.08098002 0.18373701 -0.036116935 -0.056699842 -0.4318879 0.18733656 -0.17139548 0.017177764 -0.2018935 0.07919629 0.20697539 0.24321494 -0.258802 -0.0051692883 0.23998515 -0.0580724 -0.25929117 0.0057571013 -0.042963956 0.31158 0.15977556 0.23993602 -0.18819733 -0.1154219 -0.33613774
765 -0.064708106 -0.12939282 0.020337334 0.07126904 -0.47438794 -0.15188308 -0.030006194 0.093461186 0.06352684 -0.0631703 0.056537442 0.24072093 -0.114365466 -0.20638016 0.2089961 -0.20116715 0.21854241 0.047123503 0.086034894 0.18534327 0.013616291 -0.04648812 -0.10305479 0.045247283 -0.07067131 -0.05803108 0.16475931 -0.2094217 -0.05865205 0.26755282 0.0021394622 -0.11869412 0.09982348 0.05810522 0.05358964 0.0778034 -0.007625587 0.08752414 -0.10293912 -0.14772312 -0.0765019 0.075061165 0.24981311 0.08337258 0.15920752 0.08256417 -0.0440626 0.13224535 0.09257272 0.03352291 -0.13530861 0.014036955 0.08297613 -0.008558714 -0.19604063 -0.106783636 -0.15278222 0.021484692 -0.03575985 0.08133343 0.16836555 -0.039672732 -0.32274327 -0.18003182 0.2089949 0.15453948 -0.07821651 -0.15915684 0.022690693 0.15239286 0.013588183 0.12140852 0.03891217 -0.16924137 0.2290212 -0.034375284 0.15113452 -0.028949384 0.027425008 -0.030363478 -0.24852008 -0.026026804 -0.16025114 -0.1434752 0.045700453 -0.21081917 0.020070164 -0.08005871 0.073818415 0.24320224 0.36686775 -0.12708429 0.2848092 -0.11802805 0.36205742 0.24198908 0.24508308 -0.33429518 -0.15344903 -0.42401713 -0.056767315 0.0835641 -0.23126315 -0.10009659 0.63915616 0.042294614 -0.20664954 -0.083751455 0.19727771 -0.47684097 -0.32749587 -0.24304059 0.1401369 0.0667809 0.062328402 -0.19250481 0.060845476 0.2836448 -0.08693051 -0.32070297 -0.13108481 -0.17090291 0.33803564 -0.007807156 -0.11517926 -0.31900808 -0.037601948 0.045155633
850 -0.12858076 -0.17089766 0.13117443 0.37809923 0.105572395 0.0019730667 -0.014884318 0.1423788 0.34983227 -0.2451128 0.02000845 -0.37092057 0.14219037 -0.20366566 -0.39400965 -0.2997967 0.3693317 0.023750138 0.076461196 -0.17095883 -0.11196961 -0.116253495 -0.21993263 -0.017580843 0.22879787 -0.053515438 0.06832246 -0.112725146 -0.54330444 -0.20484303 -0.024117375 0.13510226 -0.15950695 -0.12028529 -0.09503372 0.16133273 0.26232368 -0.17083107 -0.5034924 0.017945176 0.14609823 -0.014855723 0.4208979 0.19854786 0.1777715 0.18593675 0.13460428 0.30306733 -0.1762869 0.012509436 -0.10426616 -0.024299946 0.03450967 -0.19046222 -0.2685739 0.05777592 -0.17188288 0.08330804 0.1399197 -0.21916905 -0.010852199 0.019284049 -0.09120905 0.06902181 -0.11486249 0.19453026 0.18387018 -0.19232531 -0.033562217 0.20605461 0.038555566 0.067897044 0.23451981 -0.14979634 0.015974078 -0.30663973 0.24914852 0.02867822 -0.14981137 0.008053698 -0.29864088 -0.15741542 -0.12319841 -0.016306452 0.07966163 0.034972794 0.22148427 0.008214368 0.23199746 0.10994513 0.2356977 -0.16930717 0.021098346 -0.08564104 0.02861796 0.017289279 0.03894189 0.23686765 -0.02636612 -0.067357935 -0.0074649 0.102356814 0.22548519 -0.19220743 -0.23365995 -0.0042472193 0.017769651 -0.23316562 0.12003958 -0.10492134 -0.086213104 -0.059701104 -0.22990327 0.06332323 0.091695175 -0.18392533 0.14232314 -0.007939154 0.07579816 0.012216363 -0.1879575 0.094164915 -0.08711182 -0.03770076 0.046756588 -0.06863555 0.0859034 0.0016654124
168 -0.07662942 -0.46333516 -0.013711147 -0.045156267 -0.43641365 -0.2577973 -0.07623798 -0.062793195 -0.05509405 0.028255925 -0.029922796 0.1550494 0.028098723 -0.2096646 0.1322133 -0.27034527 0.2898955 0.28873166 0.2901214 0.122201666 0.015305181 0.092995174 -0.00045686026 -0.08368263 -0.029884461 -0.23093489 0.05046744 -0.24079345 -0.09658124 0.19268624 0.04780317 -0.08926121 -0.09277622 0.29445356 0.03397651 0.2333466 0.08217689 0.16813783 -0.20626011 -0.11842337 -0.012093681 0.15002444 0.18882555 0.18304655 0.14940785 0.07810182 -0.11217049 0.3125702 0.00327261 -0.2733177 -0.2671096 -0.15679224 0.1866022 0.0065015582 -0.22709519 -0.14886086 -0.024446705 -0.09191627 -0.0775771 0.007409702 0.017939864 -0.13821563 -0.08426673 -0.06642158 0.1370261 0.13734245 -0.16666956 -0.06241139 -0.10545776 0.21861154 0.08914922 -0.18189256 -0.02640645 -0.045173913 0.087160416 -0.2371784 0.3328846 0.0872399 0.04939259 0.10286817 -0.398089 0.0063425754 -0.29482454 -0.14582972 0.05170928 -0.052966956 0.21259671 0.2051074 0.2981846 -0.069094524 0.4734786 0.013199437 0.10332363 -0.21388304 0.2917374 0.18743451 0.47721502 -0.12145921 0.029295178 -0.025547797 -0.013717437 0.0685487 -0.21163295 -0.28408867 0.42076802 0.18589008 -0.11336558 0.12667733 0.30397424 -0.26263085 -0.09982495 -0.2323081 -0.06202997 -0.105223686 0.25057074 -0.12047827 -0.046236966 0.36190677 -0.07279331 -0.33965135 0.028531497 0.012750446 0.237985 -0.24257568 -0.27891833 -0.37854525 0.021435393 -0.03717393
851 0.19143791 0.16868924 0.122416824 -0.19343208 -0.06829527 -0.11018944 0.26994097 -0.044229425 0.11752656 -0.2668996 0.176604 -0.081803314 0.17768396 -0.27635694 -0.18529084 0.05686239 0.10403425 -0.067785285 -0.20111834 -0.1459458 -0.37848243 -0.05458297 0.04217681 0.13312773 0.17007266 -0.27766702 -0.18757191 -0.13584892 -0.07428862 -0.2757407 -0.046975203 0.05178189 -0.0021587748 0.073395796 -0.066064484 0.031665523 0.12764202 -0.052494854 -0.23108336 -0.23309028 0.0067637525 0.16888636 0.004145231 -0.25062534 -0.13931459 -0.081132084 0.27253562 0.016300501 0.16299607 0.16692685 0.05753203 0.16075416 0.04209426 0.05810172 0.056138184 0.050504413 0.25023088 0.12095015 0.10190191 -0.20680864 0.13264729 0.099109076 -0.42582303 -0.15308316 -0.16444111 0.009485803 0.32492688 -0.13052258 0.35039958 0.054339755 -0.09708603 0.16312222 -0.15308407 -0.21521196 -0.05054604 -0.04281045 0.07949144 -0.063907884 -0.13862564 -0.22306274 -0.35938787 -0.14196645 -0.14836186 0.11517901 0.078247644 -0.13727579 0.1261224 -0.26474136 0.25663552 0.19770527 0.19938655 0.11213385 0.16033015 -0.19592501 0.38414848 0.107229345 0.2988106 -0.11236087 0.03349261 -0.29930517 0.15524462 0.14786734 -0.045540623 -0.070228495 0.13072954 -0.0031548422 0.092378356 -0.21169332 0.37469456 0.031349037 0.013578626 -0.122729205 0.12744638 0.15377936 0.018218098 -0.3591636 -0.09603606 0.13251811 0.032032654 -0.20270064 0.2892874 0.06126865 0.13812058 -0.27255812 0.12871702 -0.25949225 -0.09987428 -0.009147784
591 0.019967563 0.31193143 0.25258684 -0.03367285 -0.008144981 0.06306441 -0.015735721 -0.0958857 0.07950734 -0.010603423 0.17717274 -0.106236435 0.12826824 -0.21285602 -0.34041542 0.056109812 0.09813454 0.18457523 -0.039141003 -0.38021612 0.0070070727 0.053004097 -0.1310694 0.14567839 0.119552195 0.124189034 -0.28344578 -0.053310126 -0.02577113 0.15749335 -0.22743191 -0.04011468 -0.14270319 -0.064980514 -0.27065027 0.114473484 0.111204505 0.30869943 -0.21641238 -0.0850332 0.09982337 -0.16353624 -0.057613734 0.10605679 -0.13493016 0.1766739 -0.028483687 0.11680842 0.16263707 0.1811369 0.16093095 -0.17246619 0.11727641 0.10115399 -0.2504035 -0.2212808 -0.04677022 0.080112964 -0.057149783 0.0054510655 0.05582479 0.019051014 -0.17802703 -0.041862637 0.10416658 0.36447713 0.09277946 -0.20607165 -0.03242087 0.35480183 -0.053891744 0.18752891 0.048790533 -0.10805743 -0.11130034 0.16268124 -0.121505015 -0.09198376 -0.21505396 -0.2977187 -0.23368472 0.04076168 -0.36047834 -0.07178795 -0.033715457 -0.29627708 0.13091782 -0.035808228 0.27672285 0.24699277 -0.17008664 0.18385729 0.20289521 -0.24555653 0.029652826 0.39459506 -0.18523932 -0.25041848 0.21440034 0.0069439244 0.048138645 0.022073677 -0.06466783 -0.06591766 0.25305298 0.114038594 -0.064664595 -0.035755455 0.39776897 -0.05487998 -0.19444455 -0.40096486 0.19114198 0.15353952 0.01589434 -0.3799074 0.107293814 0.33520383 -0.2758626 -0.33964193 0.089450926 -0.14648011 0.19526906 -0.17563295 -0.017050752 -0.050089262 -0.025358917 -0.11431096
107 0.067482024 -0.12200095 -0.06677983 0.116807714 -0.1104025 -0.23884697 0.02002361 -0.10011407 0.30729002 -0.38156387 0.033255816 -0.20098822 0.10671813 -0.34723732 -0.22171296 -0.20058158 -0.025846202 -0.041392233 0.27068043 -0.19824691 0.08494797 0.061804462 0.020185983 0.052964095 -0.0076847496 -0.104151174 -0.17220162 -0.23676418 -0.23876244 0.03172904 0.14861114 0.31032687 -0.11929087 0.048530076 0.04050131 -0.001127909 0.27026075 0.03483245 -0.2759338 -0.34004056 -0.06971318 0.12583539 0.14022069 0.047633063 -0.11399097 0.022959758 0.19284955 -0.008182215 -0.48445687 0.032754935 0.06122692 -0.15027948 -0.12687412 -0.31124485 -0.44485974 -0.07294334 -0.16248687 0.14175953 0.064296216 -0.19331613 0.07364478 -0.012754921 -0.35611296 0.020103633 -0.3410331 -0.008070939 0.19707434 -0.1766446 0.21469678 0.23436588 -0.28115445 0.31959406 0.24220937 -0.33001179 -0.25737038 -0.3453739 0.4031852 -0.022639895 0.18577662 -0.061018445 -0.035654224 -0.13560583 -0.010343907 -0.19728184 -0.100049436 -0.00086640264 0.13954856 -0.19838022 0.12096597 -0.012271013 0.10791336 -0.074989565 0.11473125 -0.042532057 0.1930357 0.27461067 -0.15078996 0.306213 0.015710434 -0.19287978 -0.19438967 0.13738646 0.1955945 -0.006066537 0.01587456 0.039775614 -0.103642546 -0.08074884 0.09913143 -0.09967213 0.07197499 -0.1973623 -0.17551202 -0.14997895 -0.09874761 -0.039643724 -0.37470004 0.0940478 -0.038818557 -0.27901626 -0.1274832 0.25152165 0.12226261 0.03697533 0.019500818 -0.14909217 -0.24291627 -0.2549436
638 0.032055218 0.058414746 0.25070977 0.18491396 0.24893436 0.008198852 -0.2703511 -0.023796417 0.055635 -0.012530036 0.04168233 0.009434398 0.30517772 -0.5219347 -0.33542225 -0.0642597 0.1605996 0.1694683 0.06872291 -0.22902781 -0.10752768 -0.02085697 -0.05020332 -0.17012925 0.20087948 0.054499507 -0.14206408 -0.31207016 -0.29784063 0.03660274 -0.052876573 0.035413045 -0.16453071 0.17424303 -0.1247623 0.045107305 0.19436383 0.08741567 0.19522229 -0.08707082 0.06980388 0.2552177 -0.083731815 0.015035485 0.16729397 0.4591562 0.36198482 0.12778795 -0.28034148 0.10759163 -0.32343325 -0.046242665 -0.25276992 0.03842991 -0.117149495 -0.43016422 0.034875106 0.043033034 0.08151052 0.21326526 0.07332289 -0.12917492 -0.0039276434 0.031674504 0.15975529 0.33648092 0.16203013 -0.45581478 -0.109329835 0.18174691 -0.19393526 0.043983847 0.12612084 -0.004035635 0.16816232 0.24686024 0.07297425 0.15259555 -0.19195269 -0.614943 -0.29602078 0.24666479 -0.08946804 -0.107725844 -0.27634364 0.04124346 0.40672165 -0.18547411 0.15472123 -0.0054548034 0.21544926 0.22201414 0.0040908316 -0.05264019 0.3978462 0.3506903 -0.054886293 -0.19111659 0.11921969 -0.14082547 0.10730929 0.11437598 0.111532375 -0.14417106 0.37031776 0.07484385 -0.20310766 -0.12004465 0.17807013 0.24183863 0.24613057 -0.18149455 0.1544752 0.2847013 0.14904565 0.18615806 0.13867241 -0.055518296 -0.2839214 -0.15012743 0.022995792 0.2295818 0.24509743 -0.17193747 -0.22592038 -0.07238931 -0.30371478 -0.13723838
530 0.089797504 0.09482562 -0.03444864 -0.15126362 -0.22202347 0.0028368437 0.2572494 0.06743384 0.006372456 0.0037310906 0.058003176 0.03627796 -0.13300459 -0.11103946 -0.11716883 0.036191154 0.112032555 -0.06567838 -0.09076685 -0.09363482 0.23464541 0.14685638 0.060364638 0.29735574 0.056182038 -0.17037384 -0.16922027 0.026228536 -0.27185187 -0.20043658 0.010005757 -0.084967546 -0.16128738 -0.1641438 -0.040397152 0.00019999786 0.22116391 0.2323642 -0.23778228 -0.15224996 -0.059706006 0.12407374 0.06590428 -0.06539934 -0.13770866 -0.057472844 0.19019474 0.03305064 0.20097381 -0.0027358432 -0.12411691 -0.030065155 0.2820328 0.16347921 0.17756528 0.19557671 0.31804353 -0.05041837 0.052262366 -0.28118825 0.15834737 -0.20186622 -0.45458758 -0.13644782 -0.20064896 0.13221537 -0.05238545 -0.2140634 0.23568562 -0.0041422583 0.07463191 0.08542249 0.1254986 -0.26677 0.14979272 -0.1383645 0.06431323 -0.28023252 -0.2439578 -0.22750637 -0.40783918 -0.0077357073 0.0066352496 0.18253203 0.13162261 -0.2568766 0.10670815 -0.21724969 0.020260127 0.049328424 0.17890139 -0.004670637 0.26203272 -0.25594473 0.34573653 0.06311642 0.34279034 -0.10241491 0.20499933 -0.22617312 0.038734056 0.10085437 0.10650625 0.25938419 0.23730704 0.23308253 0.15390928 -0.12683165 0.16545972 0.014224724 -0.15586336 -0.34970778 0.0055092704 -0.15166245 0.10780915 -0.3802724 -0.10403625 0.32523224 -0.10487969 -0.14275646 0.13239577 -0.16910903 0.040841706 -0.14635114 0.009782019 -0.40529627 -0.08082043 -0.197976
383 -0.25187448 -0.007226437 -0.16131943 -0.1638468 0.13741277 0.099682264 0.17909242 -0.22844368 0.16866085 -0.113796905 0.13609393 -0.20543543 -0.1923983 -0.26528645 -0.26197663 0.09482567 -0.24450545 0.21176666 -0.15772635 -0.13720705 0.1701157 -0.20089863 -0.41333604 0.17023583 -0.01961313 0.15411836 -0.010154752 0.13507727 0.0015171173 0.068619944 -0.06319186 0.35326698 0.20162667 -0.0553884 -0.06768039 0.08061581 0.36976853 -0.058769092 -0.028669264 -0.37906086 0.10556531 -0.07129604 -0.066393234 0.024633624 0.2931859 -0.038220163 -0.07876414 0.34783992 -0.11729762 0.04048725 -0.40450466 -0.1891695 -0.2857153 -0.09350544 -0.3104955 -0.06624881 0.11540498 0.27315572 0.19797054 0.25225738 -0.13514188 -0.17073674 -0.47307467 -0.039257478 -0.042062156 -0.112271406 -0.14663681 -0.2287556 0.28556594 0.26651 -0.14904015 0.08562521 0.0047823214 -0.28365174 0.07319922 -0.25567207 -0.10149551 -0.247773 0.3119846 0.21057701 -0.092916295 0.1992679 0.16227405 -0.31027278 -0.020785654 -0.07949065 0.18614504 0.10855552 0.27049923 0.23103413 0.05189511 0.21399212 0.10360756 -0.1490981 0.1862626 0.0018955556 0.347583 -0.12739187 -0.29123545 -0.4169063 -0.012966526 0.012787269 -0.21757504 -0.17970835 0.26585987 -0.15169661 -0.18367796 -0.18105973 0.39149272 0.19163235 0.08188551 -0.4646594 -0.19964409 0.35662323 -0.012479242 -0.01768794 -0.40063137 0.31340528 -0.008091149 -0.5318174 -0.07379382 0.14322421 0.20000936 -0.068084955 0.3643308 -0.28137958 -0.31264237 -0.08475214
178 0.27882725 0.22260486 0.19491276 0.13431516 0.056808952 0.1399572 -0.07813694 0.018855162 0.07331763 0.09404108 0.31048384 -0.116589144 -0.0058810306 -0.14975289 -0.14726788 -0.24866058 0.03028033 -0.107353926 0.02504032 0.08191932 0.07452018 -0.013616107 -0.12617545 0.1555221 0.09668583 -0.23890777 0.08249205 -0.30549037 -0.2251281 0.03954211 0.16775769 -0.15270318 -0.12748642 -0.012042577 -0.15562561 0.12697938 0.32051077 0.12947993 -0.05468224 -0.1337545 0.17858562 0.2572163 0.34307835 -0.025599767 0.1417876 0.1403566 0.3457932 -0.05917551 -0.04532094 -0.10398148 -0.31904596 -0.058997516 0.07426682 -0.06589972 0.0781079 0.14990437 0.23676321 0.08922219 -0.13804047 -0.10917075 0.07313958 -0.10320906 -0.11493923 0.14667289 0.043900568 0.04438548 -0.16057786 -0.25922352 -0.10603361 0.11886888 0.0061870776 0.11636599 0.11593417 -0.23182286 0.13588735 -0.34725806 0.14608137 0.11596075 -0.019889738 0.061299983 -0.3341452 0.15783444 0.042219065 0.005859666 -0.014086946 0.07277783 0.26333445 -0.20581275 -0.0944335 0.08128559 0.387131 -0.059850544 0.39612463 0.11132072 0.3344464 0.082346156 -0.13539535 -0.16525732 0.0006552772 -0.597982 -0.08378586 -0.11259827 0.15583274 0.065878056 0.12728173 0.17607869 0.5013312 -0.25984037 0.12610349 0.075342 -0.028752407 0.029402489 0.18636207 0.15409754 0.05766013 -0.035564605 -0.25900766 0.048448294 -0.007841364 -0.2360286 0.12348333 -0.0013407165 0.06732228 -0.10070976 -0.20987207 -0.049123995 -0.26375234 0.0828113
24 -0.06089613 -0.10727653 0.31980574 -0.076118514 0.36162788 -0.102202564 0.25310674 -0.033964854 -0.02944245 0.14642058 0.34993523 -0.22030166 0.1242512 -0.21052742 -0.14795598 0.10193038 0.097455256 0.032825675 -0.2609664 -0.21120834 -0.17515118 0.24502058 0.061663095 0.34716922 0.20810269 -0.13928127 -0.19874485 -0.14403796 -0.05286102 -0.2660332 -0.13261336 -0.07247056 -0.18808074 0.075909086 0.052677676 -0.016682383 0.25316837 -0.07541198 -0.23408714 -0.07537902 -0.07448858 0.31462383 -0.14782675 -0.021176202 0.019499417 -0.035973288 0.04784474 0.061190285 0.2802624 0.010861977 -0.18969561 -0.012237139 0.08169849 0.34874418 0.016150396 0.1305249 0.3627976 0.2615501 0.043835543 -0.24865663 0.006592094 0.015979098 -0.2496656 -0.09646845 -0.5237627 -0.13121751 0.12031376 0.114085406 0.14883687 -0.03307337 0.1608893 0.06328132 -0.014232603 -0.12164171 -0.18771969 0.10203194 0.13076228 -0.11879586 -0.23309457 -0.22597747 -0.40604693 0.10905963 0.09901991 -0.004247906 0.08580831 -0.10559391 0.07294336 -0.17409268 0.18279274 -0.025512688 0.26616666 0.11843844 0.1825728 -0.31854898 0.36816344 0.2574139 0.4277986 0.14944784 -0.091952726 -0.37623346 0.027066898 0.10586613 0.08661691 -0.035383586 0.19694214 0.1712397 0.17708302 -0.19411592 0.44701588 0.08909425 0.07819382 -0.00069000456 -0.012853859 0.13713165 0.03540306 -0.25099975 0.010896788 0.08727458 0.050254352 -0.24083877 0.37784013 -0.09271968 0.1853136 -0.27336794 0.11200343 -0.40634516 -0.11474404 -0.02929904
499 -0.0862651 0.06999709 0.03456637 0.08880473 -0.20760697 0.1448746 0.33913708 0.015015146 0.16192852 -0.4488533 0.092242345 -0.21383496 -0.18197063 -0.09764872 -0.12877133 -0.09616846 0.21978442 0.022933021 0.042017817 0.07799919 0.15388997 -0.31157258 0.099661924 0.06821136 0.110605896 -0.18227436 -0.062703475 -0.08869783 -0.17012878 -0.0042387415 -0.04612464 -0.33640167 -0.0927542 -0.14985742 -0.18705529 0.17053807 0.2705724 0.046567626 -0.2342983 -0.20760079 -0.07781194 -0.041244805 0.44848737 -0.13679636 0.46443883 0.28253192 0.2062615 0.24934241 0.046828777 -0.31259724 -0.43819073 -0.21496123 -0.056292668 -0.027077112 0.10244432 0.069427386 0.08396897 -0.014744607 0.020279247 -0.08027765 -0.03429104 -0.13968587 -0.14820862 -0.105460666 0.027536685 0.087490395 -0.32412785 -0.24934302 -0.09202182 0.25631985 0.027904818 -0.028303342 0.06877751 -0.12052648 -0.02187107 -0.21122083 0.06583797 0.022650415 -0.03697415 0.1657309 -0.0014987258 -0.062406883 -0.07326672 -0.2123212 0.22896573 -0.14629138 0.1032166 -0.24793911 0.067664005 0.058634244 0.1207291 0.1804411 0.17799404 -0.17335649 0.18486385 0.0308124 0.29828855 -0.19168304 -0.062028788 0.02100131 -0.16677886 0.023116494 -0.089583 -0.28651288 0.07753693 0.22194012 -0.1461364 -0.1646617 -0.074627854 -0.10898992 -0.17886928 -0.26268312 0.10016769 -0.01077959 0.062691376 -0.38137457 -0.14770013 0.10596084 0.14875804 -0.14489318 -0.035736 0.27838653 0.42254218 -0.27473006 -0.2968876 0.023552246 -0.01553945 -0.08199024
410 0.023330756 0.020164363 0.34997818 0.17468773 0.30034822 -0.041738473 -0.4554247 0.11252356 0.20020607 -0.17633712 0.00051190023 -0.21059589 0.27486253 -0.35998765 -0.13821818 -0.093735225 0.036523104 0.062339205 0.073853046 -0.1944825 -0.041019965 0.32541585 0.32465044 -0.0004070311 0.09216526 0.21336503 -0.04189003 -0.26937523 -0.3066542 -0.279861 -0.2792222 -0.012816396 -0.2192373 -0.025656002 -0.11101667 0.23729669 0.37065372 -0.13322292 -0.3193205 -0.11433746 -0.0118157 0.13626248 0.35813487 0.14293033 -0.07654391 0.22717083 0.08905081 0.19183616 -0.03446988 -0.058039796 -0.16993463 -0.103147894 -0.10065532 -0.23986726 -0.12547211 0.055401452 0.20382608 0.49071658 -0.047295183 -0.4457185 0.058423974 -0.032327283 -0.22920692 0.19734992 -0.09774427 0.048641365 0.23372288 -0.13627605 -0.046103597 -0.04291013 -0.014271923 0.032587025 0.2089201 -0.23566921 0.00091287534 -0.013298218 0.06870037 0.2792027 0.15320803 0.0063559115 -0.09647035 0.025022253 0.0034351337 -0.030013524 -0.07770006 0.07142155 0.121184714 -0.102233134 -0.033282105 0.27288505 0.15911534 0.18914102 0.010846808 -0.2349569 0.24339435 0.60316515 0.12022996 0.07091002 0.26405337 -0.28644204 -0.07196866 -0.025294079 0.31761062 -0.078507975 0.16963364 0.09707035 0.31168658 -0.1791648 -0.27397475 0.1837408 0.112316795 0.14189424 -0.019102756 -0.04542119 -0.054509267 0.35578454 -0.1287685 0.32433206 -0.14037141 -0.27773917 0.017565658 0.026124805 -0.22165498 0.019671455 0.16959575 0.0759878 -0.26621014 -0.25834253
231 -0.36564144 0.014054935 0.18365905 0.15137553 0.24299008 -0.08555833 0.2651129 -0.073426865 0.15227894 0.07447625 0.20487727 -0.023451757 -0.24289711 -0.28832835 0.29636675 0.13108289 0.035933085 -0.07598167 -0.054627635 -0.17008649 -0.07662771 0.07110751 -0.13418633 0.14220656 0.42749783 0.11073902 -0.14820126 -0.17958575 0.06424809 -0.038239233 0.21353345 0.10132831 -0.33083665 -0.24612275 -0.1415176 0.06988165 0.20907995 -0.011718422 -0.15697955 0.15118587 0.07301525 0.069844276 0.23201607 0.36391532 0.05161753 0.12032032 -0.18047029 0.2942201 -0.033987213 0.031805858 -0.53565586 -0.0403909 -0.007339267 0.03421181 -0.36252567 0.07665308 0.33716324 0.2641242 0.10815874 -0.18145859 -0.08671849 0.04556459 -0.10901828 0.039990503 -0.09441818 0.30021748 -0.18314266 -0.10930503 -0.02028582 0.28288212 -0.034163922 -0.059165847 0.2565233 0.0033373835 -0.011070378 0.06551985 0.08465098 -0.15093909 0.0032016644 0.10964323 -0.050611325 -0.0189843 -0.05403474 -0.3045882 0.0791231 -0.2294507 0.16034874 -0.045961402 0.16242966 -0.00735073 0.25127622 -0.08648638 0.35394108 0.047729947 0.10341684 0.16720891 -0.0016452722 -0.2581161 0.041055027 -0.35767722 0.11116523 -0.20053601 -0.020461544 0.18513803 -0.088479094 0.38882452 0.39128795 0.017137647 0.34106806 0.051813047 0.10054312 -0.23196226 0.11616467 0.23497923 0.29421535 -0.2249486 -0.26625228 0.110806555 -0.16376093 -0.27641237 -0.13695848 -0.080332175 0.081804544 0.058305483 -0.048857808 -0.10726566 -0.0687056 -0.028312469
